{"layers":[{"nInputs":576,"nNeurons":256,"weights":[0.05358311906456947,-0.05357220396399498,-0.012290439568459988,0.00531539274379611,0.060470834374427798,-0.05343267694115639,0.029864275828003885,-0.18095991015434266,-0.060173168778419498,-0.07294534891843796,0.011543978936970234,-0.001816734205931425,0.11131832003593445,0.030665896832942964,0.03923788294196129,-0.07354265451431275,-0.014046610333025456,-0.005514426156878471,-0.024658959358930589,-0.011291143484413624,0.016807176172733308,-0.03221065551042557,-0.09128352254629135,0.09815748035907746,-0.04901143163442612,-0.056048858910799029,0.011780194006860257,-0.08425199240446091,0.024539588019251825,0.002989399479702115,-0.0017613843083381653,-0.004328758921474218,0.05634007975459099,0.040380075573921207,-0.065668985247612,0.06503906100988388,0.13745152950286866,-0.04080162197351456,-0.07942808419466019,-0.05011193826794624,-0.07901285588741303,-0.011735739186406136,-0.03650888800621033,0.0751228779554367,-0.023971179500222207,0.034729134291410449,-0.006972402334213257,0.03144382685422897,-0.04807751998305321,0.021424058824777604,0.06726111471652985,-0.010712136514484883,-0.006985349580645561,-0.07669426500797272,0.04698589816689491,0.05015021562576294,0.015214497223496437,-0.15783631801605225,0.005678827874362469,0.02043238840997219,-0.06469006836414337,0.08709937334060669,0.11394379287958145,-0.04028087854385376,-0.041470810770988467,-0.045281145721673968,-0.09080072492361069,-0.018503757193684579,0.049987874925136569,0.06653300672769547,0.020350640639662744,-0.003367279190570116,0.026109734550118448,0.0685739740729332,0.03227139264345169,0.06246022507548332,-0.09159518778324127,0.020846452564001085,-0.011953498236835003,-0.0310943815857172,-0.004191190470010042,0.014130932278931141,0.11084509640932083,0.0909089520573616,-0.014074674807488919,-0.035797957330942157,-0.07320711761713028,-0.004395750351250172,-0.06354204565286637,0.013452228158712387,-0.05311710014939308,0.03584456443786621,0.029849039390683175,0.06472686678171158,-0.040483731776475909,-0.01885264739394188,-0.033225804567337039,0.007018397096544504,0.06714919954538346,0.046249669045209888,-0.13837546110153199,-0.019167616963386537,0.018406277522444726,-0.03698597475886345,-0.08891993761062622,0.01681545190513134,-0.012002287432551384,-0.1131797805428505,0.10101321339607239,0.04460754245519638,0.07197645306587219,0.06253685057163239,-0.08574796468019486,-0.014331066980957985,-0.03251023590564728,0.025910019874572755,0.00874623004347086,0.04478074237704277,0.05196444317698479,-0.01982519030570984,-0.0047719432041049,-0.01921924017369747,0.014922594651579857,-0.06475630402565003,-0.11131982505321503,0.034398119896650317,0.014149460010230542,-0.11322734504938126,0.011663636192679406,-0.052467044442892078,-0.0013387443032115698,-0.05308885872364044,0.04391330108046532,0.0012269297149032355,-0.053538575768470767,0.06246184557676315,0.023218583315610887,-0.046389639377593997,0.0006635167519561946,0.03547058627009392,0.11437921971082688,0.05382036417722702,0.0345616452395916,-0.0896194577217102,-0.006442076060920954,-0.10405990481376648,0.11011983454227448,0.020798334851861,0.07516475766897202,-0.010736300610005856,0.026464778929948808,0.01174862403422594,-0.11958374083042145,-0.05576275289058685,-0.018097473308444024,0.004931824281811714,-0.02633436769247055,-0.0497594028711319,-0.006774159613996744,-0.03069569170475006,-0.06491076201200485,-0.02047576755285263,-0.040208395570516589,0.00875704176723957,0.06368120014667511,-0.05232402682304382,0.09252758324146271,0.07776297628879547,-0.06778779625892639,-0.07564207166433335,0.05244843661785126,0.056950900703668597,-0.027878548949956895,0.09508046507835388,-0.0034683984704315664,-0.04446464404463768,0.01155730988830328,-0.033997807651758197,-0.01854865625500679,0.05129069462418556,-0.010619024746119976,-0.0402655228972435,-0.022067781537771226,0.02015330269932747,-0.02550433576107025,0.07225560396909714,0.09503190964460373,0.01439745631068945,0.10575324296951294,-0.002774842781946063,-0.03360002487897873,-0.0014227954670786858,0.054022084921598437,0.008030669763684273,0.022349657490849496,-0.03568663075566292,0.08786943554878235,-0.04655827209353447,0.05527539551258087,0.029756532981991769,0.13432565331459046,-0.057323239743709567,-0.06202060729265213,-0.04346039518713951,-0.1268218755722046,0.03846229240298271,-0.01678137667477131,0.0561990924179554,-0.07416928559541702,0.04296910762786865,-0.08857960999011994,-0.06566983461380005,-0.02614148147404194,0.08365504443645477,0.09429328143596649,0.09991335868835449,0.04136616364121437,-0.027310149744153024,-0.04160957783460617,0.017711089923977853,-0.05235827714204788,-0.022920912131667138,-0.08162665367126465,-0.023714477196335794,-0.03185715153813362,-0.03246713802218437,0.09116293489933014,-0.02709476463496685,-0.005118058994412422,-0.07000458240509033,0.06572319567203522,0.015856008976697923,-0.014718959107995034,0.007675371132791042,0.13625463843345643,0.005080435425043106,0.02809208445250988,0.0885285958647728,0.07088607549667359,-0.02292802184820175,-0.053558025509119037,-0.011614792048931122,-0.019455984234809877,0.013683808967471123,0.052321404218673709,-0.089591845870018,-0.02098497934639454,-0.03298518806695938,-0.07884498685598374,0.01414497010409832,0.04663050174713135,-0.02459706924855709,0.01300472766160965,-0.053246770054101947,-0.062287360429763797,0.0055992379784584049,-0.05856902152299881,0.09519286453723908,-0.0337783508002758,-0.04186759889125824,-0.03263895958662033,-0.06182423606514931,-0.020933227613568307,-0.06442998349666596,0.06431125849485398,-0.0442957878112793,-0.053273074328899387,-0.019162774085998536,0.014912042766809464,-0.10351760685443878,-0.04309253767132759,-0.09993234276771546,-0.11875386536121369,0.04985542967915535,-0.015521671622991562,-0.11152254790067673,-0.039086103439331058,-0.06285891681909561,-0.026617733761668206,0.005918717011809349,0.04883000627160072,0.02712308242917061,-0.014084525406360627,0.027123456820845605,0.07138081640005112,0.03818657249212265,0.0344771109521389,-0.018170706927776338,-0.051334183663129809,-0.07275908440351486,-0.09340506792068482,0.03526413440704346,-0.057038627564907077,-0.03416043519973755,-0.13839097321033479,0.08598025143146515,-0.030110687017440797,0.003565812949091196,0.05300837382674217,-0.09580624848604202,0.05583387240767479,-0.061427921056747439,0.029282979667186738,0.07849260419607163,-0.07323689013719559,-0.030394241213798524,0.092899851500988,-0.023553676903247834,0.07563668489456177,0.1225266084074974,0.018079102039337159,-0.05798221006989479,0.05119169503450394,-0.03791571408510208,-0.04122120141983032,0.041823673993349078,0.06336226314306259,0.022835269570350648,-0.01958475634455681,-0.009974431246519089,0.07109185308218003,-0.09044566005468369,-0.022034933790564538,-0.00033804349368438125,-0.009487759321928025,0.050397828221321109,0.08595659583806992,0.08159342408180237,-0.05937881022691727,-0.030843231827020646,-0.06397415697574616,0.1658678650856018,0.08839321881532669,0.03323354199528694,0.01992810331285,0.04168156161904335,-0.04338223859667778,0.05966097488999367,0.06671310216188431,-0.0010205467697232962,0.04267071932554245,-0.006796176545321941,-0.03596412017941475,0.038728017359972,0.10037047415971756,-0.05140157416462898,-0.0906764343380928,-0.01307010930031538,-0.018542278558015825,-0.02633178047835827,-0.10579699277877808,-0.044428519904613498,0.10847929120063782,-0.06780576705932617,-0.04534466564655304,-0.00492006354033947,-0.03889550268650055,-0.05983492732048035,0.011038623750209809,-0.09139180928468704,-0.0587802454829216,0.0667521059513092,0.007609882391989231,0.0010386969661340118,-0.009208104573190213,-0.0947197824716568,0.02324252761900425,-0.056222669780254367,0.032389212399721149,0.030290810391306878,0.005746167153120041,0.001989813754335046,-0.09332071244716644,-0.010846921242773533,-0.1219034492969513,0.017670372501015664,-0.035956837236881259,-0.01851179264485836,0.14623704552650453,0.05271705985069275,-0.009220519103109837,0.10747453570365906,0.0431385338306427,-0.019347092136740686,-0.01245309878140688,0.020222904160618783,-0.05110543966293335,0.049305036664009097,0.026387764140963556,-0.029612824320793153,0.019482692703604699,-0.04962620511651039,0.02410597912967205,-0.03978917375206947,0.034585729241371158,-0.013291317038238049,-0.00036619952879846096,0.04620295390486717,-0.053455669432878497,0.005419879220426083,-0.1290372759103775,0.03288773447275162,0.06812752038240433,0.021351035684347154,-0.019795574247837068,-0.0844273492693901,-0.10101113468408585,0.0692783072590828,0.010496817529201508,0.059235669672489169,-0.02740008383989334,0.04706054553389549,-0.023809555917978288,0.023460106924176217,0.08503947407007218,0.02040540985763073,-0.015207445248961449,-0.028980622068047525,-0.05376899242401123,0.037516575306653979,-0.022434132173657419,-0.07524367421865463,0.032449401915073398,0.043152324855327609,0.010308763943612576,0.03124689869582653,-0.034994762390851977,-0.08293855935335159,0.07830072939395905,0.03353411331772804,0.047856081277132037,0.04192517325282097,0.0076665934175252918,-0.022739320993423463,0.015878740698099138,0.05208985507488251,0.10339543968439102,-0.024115169420838357,0.007461613044142723,0.060439106076955798,-0.016691653057932855,-0.042779210954904559,-0.03180599957704544,-0.07025530934333801,0.055421967059373859,0.18639521300792695,0.02089989371597767,0.04024861752986908,0.0023928259033709766,0.006320467218756676,0.06908059865236283,0.010554173029959202,-0.010749038308858872,-0.0026271468959748747,-0.022709965705871583,-0.17495504021644593,0.027924463152885438,-0.057117778807878497,0.08828708529472351,-0.10927625745534897,-0.0201716385781765,-0.006480213720351458,-0.03599545359611511,0.035991471260786059,-0.05601922795176506,-0.06946265697479248,-0.049181658774614337,0.045969266444444659,0.015179803594946862,-0.10143285989761353,-0.0497344546020031,0.030784377828240396,0.055389925837516788,0.10234934836626053,0.0672784298658371,0.029381051659584047,0.016669850796461107,0.0037300412077456714,-0.06361329555511475,0.06844465434551239,-0.05222456157207489,0.11191060394048691,-0.03253709152340889,-0.13296084105968476,-0.03313460201025009,0.02111729420721531,-0.10548344254493714,-0.07075236737728119,-0.061276327818632129,-0.07601819187402725,0.038309089839458469,0.049248985946178439,-0.04547584429383278,-0.06559515744447708,0.0013887837994843722,0.015628498047590257,0.027923302724957467,0.004830008838325739,0.054022617638111117,0.004144310485571623,0.09137744456529618,0.05695008113980293,-0.06780127435922623,-0.07257183641195297,0.025522831827402116,-0.09559628367424011,0.07391713559627533,0.11494648456573487,0.04160744696855545,-0.10243512690067291,0.06544496864080429,-0.0675438642501831,0.046191394329071048,-0.05731303244829178,-0.05079897493124008,-0.061426129192113879,0.0625479519367218,0.03642946481704712,0.09872500598430634,0.09447228163480759,-0.14612193405628205,-0.10954824835062027,0.04269798845052719,-0.008641992695629597,0.12474702298641205,0.08886056393384934,0.12652570009231568,0.015176177024841309,0.05720622465014458,0.0029116603545844557,0.022323720157146455,-0.02214556559920311,-0.06431129574775696,-0.044736605137586597,-0.0481901615858078,-0.03064301609992981,-0.150555819272995,-0.05097023770213127,0.030792798846960069,0.03548344597220421,0.07354612648487091,-0.047279052436351779,-0.05531439930200577,0.02153880149126053,0.01514787320047617,-0.022099049761891366,0.03826548159122467,-0.09691252559423447,0.07960312813520432,-0.01206070277839899,-0.019293835386633874,0.08051536232233048,-0.08225268125534058,-0.01737144961953163,-0.07547391206026077,-0.03855666518211365,0.07399897277355194,0.09437820315361023,-0.07276090234518051,-0.0016175832133740187,0.002093500690534711,0.08836480230093003,-0.0006265610572881997,0.007107580080628395,-0.011124161072075367,-0.06397508829832077,0.10640912503004074,0.028150536119937898,-0.03978470340371132,-0.0404629111289978,-0.006345680449157953,0.1302727609872818,0.05964195728302002,0.05225662514567375,0.010634975507855416,-0.005725450348109007,-0.003915248904377222,0.06915479153394699,0.0013358498690649868,-0.0217263326048851,-0.07727298885583878,0.033046603202819827,0.0840228870511055,0.0044863359071314339,0.007423431612551212,0.03352634236216545,-0.03273981809616089,-0.008704795502126217,0.12094491720199585,0.08353373408317566,0.046048201620578769,-0.05771768093109131,0.03167513757944107,-0.09609125554561615,0.006065503694117069,-0.028963759541511537,0.056657131761312488,0.016320807859301568,-0.03362594172358513,0.04140109196305275,0.04725833982229233,-0.0053419857285916809,0.021338360384106637,-0.07095623016357422,0.07931388914585114,0.06215830147266388,-0.04750322923064232,0.05223090574145317,0.017584839835762979,0.09021352976560593,0.03218096122145653,-0.08265366405248642,-0.022775262594223024,0.07534617930650711,-0.03316907957196236,-0.03160430118441582,-0.0005387102719396353,-0.011689106933772564,-0.009089712053537369,0.007669187616556883,0.0538204088807106,0.025161070749163629,-0.02129562571644783,0.033499665558338168,-0.015782508999109269,0.06010720133781433,-0.04182903468608856,-0.06566285341978073,0.0828821137547493,0.009784450754523278,-0.10717248916625977,-0.14845509827136994,-0.06889481842517853,0.042845312505960467,-0.07223456352949143,0.09736470133066178,-0.017361124977469446,-0.007505116052925587,0.028619110584259034,0.095826655626297,-0.07002648711204529,0.029385721310973169,0.0005182567983865738,0.02923617884516716,-0.03207046166062355,0.02333514764904976,0.029417676851153375,0.08302178233861923,0.03372347727417946,-0.0956878811120987,0.06091967597603798,0.09636204689741135,0.0622229166328907,-0.007255448028445244,-0.06817948818206787,0.05632072314620018,-0.06331821531057358,0.0034945416264235975,0.03678544610738754,-0.04509485512971878,-0.03704678267240524,0.06254923343658447,0.05754116177558899,0.02309490740299225,0.00683320127427578,-0.03217807784676552,0.019249677658081056,0.011723610572516919,-0.026925615966320039,-0.09551836550235748,-0.03447204828262329,0.03665376082062721,-0.018568312749266626,-0.10433376580476761,-0.09631438553333283,-0.0012264596298336983,-0.11598926782608032,0.03393707051873207,0.022872336208820344,-0.028769303113222123,0.05647936835885048,0.08464545011520386,0.06762571632862091,0.023476654663681985,0.04405701905488968,0.09536652266979218,-0.043603021651506427,0.08385247737169266,0.01719995215535164,-0.08260852098464966,0.08724062144756317,-0.042153097689151767,0.033508285880088809,-0.0726373940706253,-0.09950663894414902,0.10090209543704987,-0.039984796196222308,0.0866655632853508,0.03130628913640976,-0.026102906093001367,-0.0031981454230844976,-0.0862971693277359,-0.04096268489956856,-0.027275195345282556,-0.0644901841878891,-0.0662953183054924,-0.07333801686763764,0.05655054375529289,-0.024281196296215059,0.013252757489681244,-0.02734205685555935,-0.07505600154399872,-0.00651240861043334,0.008413715288043023,0.024598006159067155,-0.062119077891111377,-0.007054269313812256,0.00956210307776928,0.07860175520181656,0.034915074706077579,-0.005372655112296343,0.08227527141571045,-0.08600334823131561,-0.05033714324235916,-0.049444716423749927,-0.009291345253586769,0.012175114825367928,-0.0003050808736588806,-0.10522649437189102,0.047590792179107669,0.010147791355848313,0.10176726430654526,0.007298254407942295,-0.05696956813335419,0.03155948221683502,-0.039769381284713748,0.05087750405073166,0.040617626160383227,0.015364281833171845,-0.016615550965070726,-0.045240383595228198,0.055784162133932117,-0.023792095482349397,-0.018153421580791475,0.013905970379710198,-0.01420694962143898,0.09705490618944168,0.036919109523296359,-0.007943895645439625,0.004455218091607094,-0.004719098098576069,-0.10941971838474274,-0.036906030029058459,0.01970835216343403,-0.0002848461444955319,0.023229997605085374,0.06938467919826508,0.12101998180150986,0.047001928091049197,0.08823612332344055,-0.03569263219833374,-0.02301228977739811,0.13784684240818025,-0.10011139512062073,0.011507456190884114,0.02078947238624096,-0.061062876135110858,0.002251486759632826,-0.03899586200714111,-0.01087910681962967,-0.0008373167947866023,0.0702873095870018,-0.008531284518539906,0.0459822416305542,0.044823743402957919,-0.031531717628240588,0.0484771691262722,-0.03054412081837654,-0.007494586054235697,-0.05293749272823334,-0.018746616318821908,-0.07046213001012802,-0.044046178460121158,-0.03974774107336998,0.0011123809963464738,-0.047723494470119479,0.05730514973402023,-0.01630314439535141,-0.011577573604881764,0.02071361057460308,-0.07686980068683624,-0.043296802788972858,-0.04900240898132324,0.02022353745996952,-0.12171462178230286,-0.05902514606714249,-0.029724452644586564,-0.03237297758460045,0.032426249235868457,-0.040215931832790378,-0.06389734148979187,-0.01916567049920559,-0.027255713939666749,-0.023626506328582765,-0.07175014913082123,0.08431829512119293,-0.05189342424273491,-0.08367715030908585,0.08352990448474884,0.023052630946040155,-0.029530946165323259,0.07734288275241852,-0.018689248710870744,-0.06470583379268646,0.007075064349919558,0.09050647169351578,0.016978031024336816,-0.01606181263923645,0.06551298499107361,-0.04425268992781639,-0.11702264845371247,0.06041755527257919,0.06828140467405319,0.04534636065363884,-0.03907356411218643,0.031557124108076099,-0.11225885152816773,0.013802452012896538,-0.09837324172258377,-0.007593891117721796,0.026047294959425927,-0.018772853538393976,-0.0383312925696373,-0.09879331290721894,0.00715756556019187,-0.006444339174777269,-0.061218176037073138,0.12636151909828187,-0.12203354388475418,-0.0034262891858816149,0.01357579231262207,0.010166223160922528,0.12098777294158936,-0.045943863689899448,0.0704168751835823,0.07067736238241196,-0.08187318593263626,0.051887836307287219,0.009897415526211262,-0.0488184317946434,-0.11522790044546128,0.01861756108701229,0.005164040718227625,0.004076044540852308,-0.05049426853656769,0.014675388112664223,-0.05914798378944397,0.020808907225728036,-0.11841506510972977,-0.11217033118009567,0.022444631904363633,-0.02369840256869793,0.009013289585709572,0.01579158753156662,-0.027500800788402559,0.04203428328037262,-0.03252978250384331,0.002747173421084881,0.02420259267091751,-0.0006961372564546764,0.023292548954486848,-0.025180179625749589,0.025965504348278047,-0.026130598038434984,-0.01876426674425602,-0.005140344612300396,-0.08499032258987427,0.044025711715221408,-0.05627765133976936,-0.005300236400216818,0.041836030781269076,0.04049811512231827,-0.009879683144390583,-0.05539923161268234,-0.04532309249043465,-0.014547852799296379,0.016043873503804208,-0.05799932777881622,0.07459531724452973,0.025513730943202974,0.03436082974076271,0.04285792261362076,0.025590308010578157,-0.08345142751932144,-0.017871450632810594,-0.03958965837955475,0.02359592169523239,-0.02667979896068573,0.09299977123737335,-0.030280089005827905,-0.02022755891084671,0.010983753949403763,-0.15044261515140534,-0.0038993998896330597,-0.012203722260892392,0.032248374074697497,-0.03232536464929581,-0.009132331237196923,-0.02929135411977768,0.023433780297636987,-0.16491010785102845,-0.055697001516819,-0.01198638416826725,-0.09348114579916,-0.06578899919986725,-0.012244445271790028,-0.019181175157427789,-0.05658204108476639,-0.020436910912394525,-0.1255803406238556,0.04047039523720741,0.06368332356214524,0.06179436668753624,-0.022119799628853799,0.01876506768167019,0.07556624710559845,0.018631212413311006,0.01829362101852894,0.008351069875061512,-0.019981492310762407,-0.03505804389715195,0.07410143315792084,-0.012352613732218743,0.05783497914671898,-0.04762650281190872,0.10957839339971543,0.04372419789433479,0.03771352767944336,0.01971050538122654,-0.04502834752202034,-0.12380398064851761,-0.034341342747211459,-0.05906079337000847,-0.0894213616847992,-0.06496259570121765,0.0006894429097883403,-0.05384962633252144,-0.04914775490760803,-0.021959049627184869,0.043240245431661609,-0.003057246096432209,0.07533276081085205,-0.028241131454706193,-0.0637291893362999,-0.018916580826044084,-0.005554124712944031,-0.1698131114244461,0.004547373857349157,0.0628722757101059,-0.050733812153339389,-0.1820128858089447,-0.07589708268642426,-0.018046794459223748,0.013919592835009098,-0.061561062932014468,0.05424638092517853,-0.04023104906082153,-0.018783044070005418,0.05975549295544624,-0.08211040496826172,0.016278699040412904,0.016379227861762048,0.04069380462169647,0.02038348652422428,-0.05802538990974426,0.04105725511908531,-0.07404287159442902,-0.02509983815252781,-0.03170483186841011,-0.0042487275786697868,0.04597889259457588,0.03755558282136917,0.03309011459350586,-0.054898954927921298,-0.05669209733605385,-0.04911226034164429,0.07283198833465576,-0.14762569963932038,-0.08522529155015946,-0.09098943322896958,-0.0588393434882164,-0.05468042939901352,-0.008523057214915753,0.015356912277638913,0.01059706136584282,0.0029208397027105095,-0.04906241223216057,0.07651003450155258,-0.05573253333568573,0.0007705859025008977,-0.08840446174144745,0.04525091499090195,0.02549382485449314,0.027605241164565088,-0.10169541835784912,0.06146974116563797,0.05925462767481804,-0.02388097532093525,0.017177175730466844,0.011861119419336319,0.010056430473923684,-0.058726437389850619,0.005748809780925512,-0.019311215728521348,0.08643804490566254,-0.02127399668097496,0.015741564333438875,0.06177697703242302,0.03386373445391655,0.05350691080093384,0.019939851015806199,-0.01624446175992489,-0.014095477759838105,-0.07762659341096878,-0.05861779674887657,0.011310609057545662,-0.022518618032336236,-0.05975469946861267,-0.07751553505659104,-0.007109036203473806,0.023472296074032785,0.009971083141863346,-0.02877007983624935,0.11003378033638,0.028425946831703187,0.002147441962733865,-0.07972300797700882,-0.048996079713106158,0.01759088598191738,-0.14747142791748048,-0.0707419291138649,0.03548873960971832,-0.01221995335072279,0.1223001629114151,0.0354742594063282,0.15052978694438935,-0.06031390279531479,-0.06143888831138611,-0.03635871037840843,-0.055708445608615878,0.014319273643195629,-0.024193305522203447,-0.004601378925144672,0.1091877818107605,-0.057062506675720218,-0.032662972807884219,-0.07326414436101914,0.00033003033604472876,-0.04724431410431862,0.025836652144789697,-0.05395219475030899,-0.015911852940917016,0.07821165025234223,-0.011765476316213608,-0.10466344654560089,0.04373166710138321,-0.0026430455036461355,0.11479973793029785,0.1732805222272873,-0.08326541632413864,0.00041209618211723864,0.053147830069065097,-0.10887853056192398,-0.12618879973888398,-0.03772471845149994,0.07111812382936478,0.03865436464548111,0.008855840191245079,0.07368646562099457,-0.10410843789577484,-0.027560120448470117,-0.16107217967510224,-0.09393076598644257,0.05277523398399353,-0.021123256534337999,-0.0918588638305664,0.00006329685857053846,0.09988447278738022,-0.04580939933657646,0.034749165177345279,-0.05533669888973236,0.008986257016658783,0.008013010956346989,0.09589545428752899,0.017427483573555948,-0.04507425054907799,0.054119057953357699,-0.05779530107975006,0.048794910311698917,-0.036540500819683078,0.0203851405531168,-0.01750822365283966,0.03366114944219589,0.07991230487823487,-0.0423048697412014,-0.10632546246051789,0.00940040685236454,-0.04564053565263748,-0.05533279851078987,-0.007129738572984934,-0.07379657030105591,-0.04431004077196121,-0.02278837561607361,-0.13168761134147645,-0.03745075687766075,-0.014670439064502716,-0.03929677978157997,0.04833555966615677,-0.08599848300218582,-0.022045962512493135,-0.025722485035657884,-0.07531057298183441,0.07449106872081757,0.07727470993995667,0.05357523635029793,0.021484585478901864,0.04932449012994766,-0.0024125836789608,-0.009655648842453957,-0.005977272056043148,0.009530183859169484,-0.03722110018134117,0.062454190105199817,-0.14578364789485932,0.00009878629498416558,0.021238038316369058,0.05541551858186722,-0.036130234599113467,-0.02293454110622406,0.1251419484615326,0.019398927688598634,0.004107847809791565,-0.046867311000823978,-0.03304846212267876,-0.03653630241751671,0.003400654997676611,0.1357591301202774,0.0466531477868557,0.03847060352563858,-0.09208186715841294,-0.025074226781725885,0.031443651765584949,0.05357066169381142,-0.02925221249461174,0.009426346980035305,0.11395969986915589,-0.1281229555606842,0.015470691956579686,-0.03043992631137371,-0.0354657806456089,-0.007168925367295742,-0.03601508587598801,-0.08917342871427536,0.00930520985275507,0.01992698572576046,0.06022922694683075,-0.10069704800844193,0.07273191213607788,0.050568681210279468,-0.0050916895270347599,0.020218126475811006,0.01722567155957222,-0.06531546264886856,0.036501944065093997,0.0756603553891182,-0.032328762114048007,-0.0006591063574887812,-0.05686404928565025,0.06148349493741989,-0.013454333879053593,-0.03026336058974266,-0.09350311756134033,0.0351218543946743,0.010008937679231167,0.023279935121536256,0.042211633175611499,0.07289218157529831,0.08462759852409363,-0.06865979731082916,-0.02468573860824108,0.06911645829677582,-0.09833013266324997,0.017654359340667726,-0.0014734104042872787,-0.02630334161221981,-0.02435116283595562,0.020392730832099916,0.040153976529836658,-0.11588132381439209,-0.07299739867448807,-0.008213440887629986,-0.1400534063577652,-0.035990867763757709,-0.04591463878750801,0.012320276349782944,-0.02456187829375267,0.05058866739273071,-0.025504520162940027,0.02288445085287094,0.0006357335951179266,0.02779272012412548,-0.01644516922533512,0.018520928919315339,0.06711363792419434,0.01139210257679224,0.09457222372293472,0.04012025520205498,0.012318157590925694,-0.05942118912935257,0.04006141796708107,0.0025056195445358755,-0.12412622570991516,-0.04620443284511566,-0.12597313523292542,-0.054093651473522189,-0.05456029623746872,-0.015643194317817689,-0.011553646996617318,0.049396589398384097,0.012054135091602803,-0.013846887275576592,0.09549569338560105,-0.01638776622712612,-0.09967434406280518,-0.05376661568880081,-0.01032817829400301,0.11301600188016892,0.09689240902662277,0.022701945155858995,-0.07037810981273651,0.057108793407678607,-0.013092751614749432,0.04190466180443764,-0.058443427085876468,-0.046536196023225787,0.025990713387727739,0.010052680969238282,-0.07702947407960892,0.011099028401076794,-0.08020264655351639,-0.023703034967184068,0.05801466479897499,-0.048054344952106479,-0.007789826486259699,0.06254000961780548,-0.08089514821767807,-0.07597260922193527,-0.09791512042284012,-0.02530144341289997,-0.06850426644086838,0.0994391217827797,0.0105332275852561,0.06298696994781494,0.008426427841186524,0.034466277807950976,0.01111319288611412,-0.026706671342253686,0.011368920095264912,0.02641185373067856,0.0041555012576282028,0.021743927150964738,-0.11409580707550049,-0.06449490040540695,-0.08852294087409973,0.0004146698338445276,0.01716645061969757,0.06334579735994339,0.11705029755830765,-0.03935452550649643,0.033462267369031909,0.021990301087498666,-0.04774762690067291,-0.024707987904548646,-0.00583546981215477,0.09227048605680466,0.024295974522829057,0.08662063628435135,0.006743657402694225,0.11599192768335343,0.06172395125031471,0.021511003375053407,0.12801313400268556,-0.06411518156528473,-0.01805870234966278,0.021467886865139009,-0.013137768022716046,-0.05319007486104965,0.09235041588544846,-0.053906895220279697,0.09050650149583817,-0.027374418452382089,-0.049301691353321078,-0.045188289135694507,0.05806296691298485,0.04618983343243599,-0.07343597710132599,-0.04187415912747383,0.10695447772741318,-0.03528684005141258,0.01603606715798378,0.021726388484239579,0.039531536400318149,-0.05435206741094589,-0.054194800555706027,-0.004741773009300232,0.1271684467792511,-0.00824226438999176,0.014243105426430703,-0.07669391483068466,0.005056355614215136,0.10320325195789337,-0.09446084499359131,-0.08431196957826615,-0.04213134944438934,-0.02129567414522171,-0.0015528827207162977,-0.1484052687883377,-0.06879889965057373,0.013404409401118756,-0.040609925985336307,-0.05639822781085968,-0.01827649585902691,-0.07774022221565247,-0.09818508476018906,0.05183452367782593,0.03137274831533432,0.03957436606287956,0.01786738634109497,0.035374026745557788,0.09926380962133408,-0.08007531613111496,0.03276696428656578,0.01664225198328495,-0.004606650210916996,-0.06570758670568466,0.0886622741818428,0.02755891904234886,-0.04560188576579094,-0.03620127588510513,-0.023742984980344774,-0.04991188645362854,0.04832342639565468,-0.06963948905467987,-0.022079594433307649,0.015004003420472145,-0.01312617864459753,-0.019739380106329919,0.017664870247244836,0.01295753475278616,0.04514458402991295,-0.05304364860057831,0.02951200120151043,0.1111869215965271,-0.03872409835457802,0.10498754680156708,0.01490324828773737,-0.01177205890417099,-0.005838786717504263,-0.07082099467515946,-0.09028138965368271,0.01624029316008091,-0.06271780282258988,-0.00913536548614502,0.07429252564907074,0.02792457304894924,-0.053409986197948459,0.0034679959062486889,0.01517421193420887,0.07748845219612122,-0.012230544351041317,-0.17625221610069276,-0.015792468562722207,-0.03320426866412163,0.011120226234197617,-0.01229241956025362,-0.011431836523115635,0.08797279745340347,0.035919222980737689,0.11744650453329086,0.15011170506477357,0.04068736359477043,-0.010307781398296357,0.07434803992509842,-0.04038384184241295,-0.0951826423406601,0.03864143416285515,-0.01278018020093441,0.04880784824490547,0.006660363636910915,-0.06614330410957337,-0.04690195992588997,-0.09550705552101135,-0.05991834029555321,0.006414016243070364,-0.1351850926876068,0.0615246519446373,-0.017718447372317315,-0.11677201837301254,-0.12419138103723526,0.02618519961833954,0.015828290954232217,0.0016548181883990765,0.029578523710370065,0.016664281487464906,0.0652177557349205,0.0674479752779007,0.019767478108406068,-0.030944088473916055,0.041586734354496,-0.00367439235560596,0.046006765216588977,-0.0006252981256693602,0.013218519277870655,0.002646861830726266,0.01751750148832798,-0.012672275304794312,0.009200231172144413,-0.048053622245788577,-0.13953712582588197,-0.045037951320409778,-0.0575997456908226,-0.014650198630988598,-0.030561814084649087,-0.03676954284310341,0.07513782382011414,0.029348403215408326,0.06629180908203125,0.09148743748664856,0.019088855013251306,0.020152831450104715,0.038382355123758319,0.06603801995515824,0.005030594300478697,-0.005895141512155533,-0.06073882803320885,-0.1013956218957901,-0.045878831297159198,-0.09245186299085617,-0.03687513992190361,0.03617694601416588,0.008800887502729893,-0.13153359293937684,-0.11426765471696854,0.0360746905207634,-0.03169770911335945,-0.09822510182857514,-0.020312869921326639,-0.027140451595187188,0.02854190766811371,0.02314700186252594,0.01795213669538498,0.06475424766540528,-0.019672183319926263,-0.021389193832874299,-0.07406043261289597,0.007929947227239609,0.01733049564063549,-0.050422780215740207,0.05247117206454277,-0.05217840149998665,-0.0662776306271553,0.00845768116414547,0.007458004634827375,-0.03331718221306801,-0.025773121044039727,0.05530194565653801,-0.04286077991127968,-0.04021109268069267,-0.09868364036083222,-0.0007744515896774828,0.04318704456090927,0.024606216698884965,-0.035591550171375278,0.0619426853954792,0.11239501088857651,0.029804691672325136,0.1239018514752388,0.13489930331707,0.1026364117860794,-0.011224953457713128,-0.046486932784318927,0.04300626367330551,-0.08759912103414536,-0.11594051122665405,0.0949103981256485,0.010217237286269665,0.03435828164219856,-0.0013974213507026435,0.0271646436303854,-0.08596935868263245,-0.06285898387432099,0.09263614565134049,-0.06623783707618714,-0.05129139497876167,0.09823610633611679,-0.04956617206335068,0.04757576808333397,0.07176527380943299,0.10477636754512787,-0.04497154429554939,-0.06207213178277016,-0.011444030329585076,0.01590420864522457,0.03442862257361412,0.05984659120440483,0.010423887521028519,0.036744505167007449,0.10517431050539017,0.10286343842744827,-0.019905846565961839,-0.007969187572598458,0.05282438173890114,0.04263598471879959,0.06598546355962753,0.018227145075798036,-0.0391886904835701,0.000886684050783515,0.08882952481508255,0.05439407378435135,0.021171536296606065,-0.019072184339165689,0.11978959292173386,0.11419087648391724,-0.08907222747802735,0.046793561428785327,-0.0166289284825325,-0.10784675925970078,-0.05017375200986862,-0.001708272029645741,-0.04781978577375412,0.02364213950932026,-0.019181881099939348,-0.04174179956316948,-0.058081310242414477,-0.0340019054710865,-0.03809240087866783,0.06631571799516678,-0.11845096200704575,0.032897938042879108,-0.14091797173023225,-0.0034096355084329845,0.036007657647132876,0.07472345232963562,0.07952665537595749,0.05979323759675026,0.1259552389383316,0.040753401815891269,0.05849695950746536,0.08099037408828736,-0.0591626837849617,0.06635350733995438,-0.048610471189022067,0.03827869892120361,0.0024377473164349796,0.01679139770567417,-0.05605905503034592,0.09412114322185517,-0.03387141972780228,0.026740465313196183,0.025851666927337648,-0.12556342780590058,-0.09852039068937302,-0.01595156453549862,-0.019589480012655259,0.0034467712976038458,-0.02403070591390133,-0.036659084260463718,-0.00942923128604889,0.015817709267139436,0.07405968010425568,0.017986152321100236,-0.019564952701330186,0.13122466206550599,0.005979938432574272,0.07244590669870377,-0.10635243356227875,-0.021745452657341958,-0.019034286960959436,0.03215371444821358,-0.026579907163977624,-0.15061822533607484,-0.07739771902561188,-0.03341585770249367,-0.06603682786226273,0.008754014037549496,0.04940515011548996,0.0034581467043608429,-0.06211397424340248,0.0378444641828537,0.001643399242311716,0.13559824228286744,0.03823292255401611,-0.08476107567548752,0.021689806133508683,0.11819077283143997,-0.022270120680332185,-0.05806436762213707,-0.10932810604572296,-0.024700038135051729,0.06209816411137581,-0.04981818050146103,-0.093635693192482,0.06995805352926254,-0.006360404193401337,-0.09355711936950684,-0.002450442174449563,-0.009426808916032315,-0.14611130952835084,-0.027575159445405008,-0.07064031064510346,-0.07179620862007141,-0.056483738124370578,-0.01287464052438736,0.04020502790808678,-0.08484411239624024,0.0347071997821331,-0.06430211663246155,0.08029291778802872,0.09305223822593689,-0.054599229246377948,-0.036069031804800037,0.04483437538146973,0.04999885708093643,0.0036552895326167347,0.006147940643131733,-0.060318879783153537,-0.05947839841246605,-0.06699946522712708,-0.02158234640955925,-0.0296512171626091,0.056766703724861148,0.05832776054739952,-0.08367124199867249,0.06260927021503449,0.045311570167541507,-0.100632444024086,0.014171300455927849,0.03311190381646156,-0.027795733883976938,0.028051666915416719,0.07323441654443741,-0.04127003252506256,-0.07412706315517426,-0.013613743707537651,-0.07123132795095444,-0.0014219016302376986,0.04615448787808418,-0.02603495493531227,-0.06356319040060044,0.09418734908103943,-0.004535172134637833,0.009180706925690174,0.008331144228577614,-0.01382762473076582,0.06759283691644669,-0.05153771862387657,-0.06627583503723145,0.06496444344520569,-0.005734162870794535,0.053604915738105777,-0.05511147528886795,-0.05039533972740173,-0.0527828149497509,0.0028293109498918058,-0.1331917643547058,0.2079804539680481,0.05122477933764458,0.013281489722430706,0.03358756750822067,0.07508485019207001,-0.11166185885667801,-0.03906610980629921,0.07744096219539643,0.09517539292573929,-0.038576122373342517,-0.011959802359342575,-0.03556148335337639,0.0895991325378418,-0.13705278933048249,0.05351479724049568,-0.032932743430137637,-0.07829540967941284,0.04228897765278816,-0.02761552296578884,0.009361771866679192,-0.03606836870312691,-0.055384714156389239,-0.031474098563194278,-0.07651516795158386,0.0918574258685112,-0.08275342732667923,0.007916087284684182,0.005759812891483307,-0.06054377928376198,0.04302966967225075,-0.08778753876686096,0.036076538264751437,0.008776598609983921,-0.03236953914165497,0.028173618018627168,0.029314005747437478,-0.0409545935690403,0.16180320084095,0.07227232307195664,0.04080716520547867,-0.004442987497895956,-0.03253705054521561,-0.10320712625980377,-0.0426156111061573,-0.01631087064743042,-0.06349528580904007,0.016299869865179063,-0.044835470616817477,0.001657942309975624,0.0418083481490612,-0.02503953129053116,0.07096356898546219,-0.04650837555527687,-0.060607995837926868,-0.09737183898687363,-0.04884131997823715,0.0000614678647252731,-0.07148884236812592,-0.06395333260297775,-0.014604045078158379,-0.06416517496109009,-0.026593752205371858,-0.010899991728365422,0.026330813765525819,0.11513415724039078,0.052254337817430499,0.007488323841243982,0.009890147484838963,0.052252378314733508,0.06074982509016991,0.047023214399814609,0.02317032963037491,-0.054737966507673267,-0.04946734756231308,-0.029652640223503114,-0.04081889986991882,-0.05958607792854309,-0.05927419289946556,-0.015351138077676297,-0.010426757857203484,0.02154388092458248,0.11371417343616486,0.03295927122235298,-0.014646711759269238,0.060417450964450839,0.07696249336004257,0.03460520878434181,0.04010428115725517,-0.052135784178972247,0.09160047769546509,-0.006673841737210751,0.07292389124631882,0.1033516675233841,0.07986737042665482,-0.024502696469426156,-0.043078746646642688,0.0692477896809578,0.019085347652435304,0.005028879269957542,0.1497950702905655,-0.06011854112148285,-0.07126858830451966,0.007374568842351437,-0.06530684232711792,-0.07477002590894699,-0.046456463634967807,0.014428183436393738,0.002504762029275298,0.060123201459646228,0.04230638965964317,0.08021224290132523,0.13286443054676057,0.10549633204936981,0.09264876693487168,0.20459765195846559,0.03883108124136925,0.041914209723472598,-0.010464092716574669,0.18225310742855073,-0.05126538500189781,0.013204282149672509,-0.08552935719490051,-0.022376274690032007,0.00869407132267952,-0.0680898055434227,0.130094975233078,0.08767472207546234,-0.042934395372867587,0.04469498619437218,0.049783408641815189,-0.03748581185936928,0.0816236063838005,-0.05592813342809677,0.051388245075941089,-0.04905266687273979,0.03261585906147957,0.019512420520186425,0.1268189549446106,0.1441381722688675,0.052664659917354587,0.04003560170531273,0.056831829249858859,-0.0020388395059853794,-0.022028110921382905,0.03738339617848396,0.048083577305078509,-0.10176596790552139,0.07093077152967453,0.009352209977805615,-0.04248860105872154,0.02485566772520542,-0.07377331703901291,0.04069628193974495,0.10651084035634995,0.03125746175646782,0.06421172618865967,-0.06425265222787857,0.05906764045357704,-0.012471475638449192,0.041908156126737598,-0.08889400959014893,0.0213331151753664,-0.0977228581905365,0.04318646714091301,0.04742805287241936,0.00730993552133441,-0.009859108366072178,-0.005507538095116615,0.04531287029385567,-0.09224357455968857,0.08053702861070633,0.13910971581935883,-0.018474003300070764,0.12173471599817276,-0.06225351244211197,0.01058950088918209,-0.036309897899627689,-0.06922118365764618,-0.07815219461917877,0.015758506953716279,0.02796575240790844,-0.01690031588077545,0.02020776830613613,0.03927444666624069,-0.03863288834691048,0.021672993898391725,-0.04090224206447601,-0.003399359993636608,-0.09553280472755432,-0.05889010429382324,0.030310429632663728,-0.07148345559835434,0.04731610417366028,-0.009513434022665024,0.09882722795009613,0.01934793032705784,0.022127486765384675,0.06468759477138519,0.1895315945148468,-0.014766383916139603,0.04855993017554283,0.02211441844701767,-0.006192322354763746,0.06471922248601914,0.069354347884655,-0.007362326607108116,0.009055045433342457,-0.0003596371680032462,0.09160391986370087,0.05047003924846649,0.07661483436822891,0.053601332008838657,-0.10263778269290924,-0.006485551595687866,0.0041047558188438419,0.05420968681573868,-0.030079293996095659,-0.01986219920217991,0.139273002743721,-0.034512754529714587,0.10196378827095032,-0.045262183994054797,0.08895247429609299,0.03862186521291733,-0.0633675679564476,-0.049829527735710147,0.022147774696350099,0.06869369000196457,0.010935456492006779,0.08930112421512604,-0.080454520881176,-0.0015603745123371482,0.053736962378025058,-0.037484440952539447,-0.003339000977575779,-0.002244284376502037,-0.10644539445638657,0.17464116215705872,-0.005771851632744074,0.03713401407003403,-0.08272623270750046,0.0026248644571751358,0.03126786649227142,0.06715958565473557,0.03718854486942291,0.06997734308242798,-0.024990340694785119,0.0554838627576828,0.0677504763007164,0.050265777856111529,0.06841548532247544,0.032816048711538318,0.10056395828723908,0.07351072132587433,0.08792588114738465,-0.003259852761402726,-0.056379128247499469,0.10495023429393769,-0.05509312450885773,0.04996439442038536,-0.08887960761785507,0.04366248473525047,0.01885700598359108,0.052440058439970019,0.0021032067015767099,0.02959483303129673,-0.057880502194166186,-0.030132653191685678,-0.05037260428071022,0.10415833443403244,0.08650673925876618,-0.12471281737089157,-0.05370231717824936,-0.02119765244424343,0.09228257089853287,-0.06441766023635864,0.00103930348996073,0.08800870925188065,0.014160591177642346,0.09809265285730362,0.11039917171001435,0.04344797879457474,0.0929919108748436,0.12325406819581986,0.10604317486286164,-0.08307861536741257,0.11205628514289856,0.07895436137914658,0.0881793200969696,0.17574691772460938,0.1456974297761917,-0.04299698770046234,0.007908155210316182,0.018728390336036683,-0.054799553006887439,0.05246037617325783,0.02408171445131302,-0.09795410186052323,0.03809992969036102,0.05286983400583267,0.16145215928554536,0.15345127880573274,0.01015408430248499,0.019808398559689523,0.035512492060661319,0.008747901767492295,0.0843619704246521,0.12465401738882065,-0.02988014742732048,-0.013897482305765152,0.05323042720556259,0.008838322944939137,0.03454790636897087,0.013165660202503205,0.05481027811765671,0.10493093729019165,-0.0052248272113502029,-0.05692353472113609,-0.07602698355913162,0.014891572296619416,-0.050524067133665088,0.15911243855953217,-0.05344370752573013,0.0515114963054657,0.019609788432717325,0.06481465697288513,0.11026380211114884,0.045961130410432819,0.006611548829823732,0.020056944340467454,0.09276668727397919,0.05286770313978195,0.14425469934940339,-0.010053499601781369,0.09971898794174195,-0.09803783148527146,-0.0065836491994559769,-0.08424759656190872,-0.042956240475177768,-0.08126857876777649,0.014777401462197304,0.0726873055100441,0.05874934419989586,-0.05795913189649582,0.022559521719813348,-0.03550952300429344,0.005322648677974939,-0.0014543964061886073,-0.05045032873749733,-0.07286104559898377,0.024387376382946969,0.06357747316360474,0.07141271233558655,-0.046294666826725009,0.04107639938592911,0.05051285773515701,0.08778134733438492,0.05985778197646141,-0.02035907469689846,-0.12346974015235901,0.05630377307534218,-0.0018264203099533916,0.0026574889197945596,0.07163924723863602,0.021293211728334428,0.024913741275668145,0.06181049719452858,0.0031578342895954849,0.13419882953166963,0.019796783104538919,-0.08636228740215302,0.09496121108531952,-0.06608455628156662,0.0487174391746521,0.11034908890724182,0.015434462577104569,0.023721586912870408,-0.03588752821087837,0.04584270343184471,0.047842856496572497,0.029781797900795938,-0.050848495215177539,-0.03053545206785202,0.027400324121117593,0.011617694050073624,-0.12297721207141876,0.00876355729997158,0.03334665298461914,0.038529399782419208,-0.05659455806016922,0.12492752820253372,-0.01961694285273552,-0.1111292839050293,-0.024336928501725198,0.09723317623138428,0.08565668761730194,0.2507956922054291,0.09468410909175873,0.06632120907306671,0.01889909990131855,0.13666513562202454,0.11512988060712815,-0.052355874329805377,0.04210205003619194,0.01831159181892872,-0.04838882014155388,-0.08244350552558899,-0.0011918192030861974,0.005304217338562012,0.03736778348684311,-0.01962871477007866,-0.0456882119178772,0.08630955219268799,-0.07891712337732315,-0.07293935120105744,0.02579541690647602,-0.053849734365940097,-0.00882326252758503,-0.0232432521879673,-0.023117683827877046,-0.025799602270126344,0.06568111479282379,-0.025216152891516687,0.003932173829525709,0.0630345568060875,-0.0000883864559000358,0.02441447600722313,-0.00008274154970422387,0.002696798648685217,0.021106798201799394,0.031478092074394229,-0.13214661180973054,0.009396305307745934,-0.01658962108194828,0.00691604521125555,0.09793942421674729,0.03291146084666252,-0.007782694883644581,-0.04333487153053284,-0.06977571547031403,0.04954655095934868,-0.0247307401150465,0.028911173343658448,-0.04025908187031746,0.0011268367525190116,0.027200469747185708,0.0851898342370987,-0.00198418484069407,-0.013930976390838623,0.10509314388036728,0.05096612125635147,0.13275082409381867,-0.001061104005202651,0.060295332223176959,0.057102784514427188,0.14290979504585267,-0.0033948682248592378,0.0769190713763237,0.1501399576663971,-0.01711382158100605,0.10429921746253967,-0.0921226441860199,-0.036916088312864307,-0.021152015775442125,-0.004941100720316172,-0.01015032734721899,-0.018346751108765603,-0.015618418343365193,-0.011308984830975533,-0.0145728075876832,-0.02483181096613407,0.08165761828422547,0.04368044435977936,0.007358094211667776,0.04268087074160576,0.05957256630063057,0.11128430813550949,0.021444862708449365,-0.0062737008556723598,-0.08739461004734039,0.037498533725738528,-0.0015499964356422425,0.03326864913105965,0.0018233790760859848,0.07553225755691529,-0.04293350875377655,-0.005236106459051371,0.07069756090641022,0.10581190884113312,-0.04132110998034477,0.0010346658527851105,-0.05401291698217392,-0.04355800524353981,0.03493132069706917,-0.06698140501976013,-0.06663485616445542,-0.029881658032536508,-0.15182355046272279,-0.0009784447029232979,0.04201938584446907,-0.10121138393878937,-0.01388366986066103,-0.0057900589890778069,-0.0430045984685421,0.0273284874856472,0.03980330005288124,0.051948051899671558,0.055861297994852069,0.15589454770088197,-0.03355725482106209,0.0581485852599144,-0.03164980933070183,0.09903503209352493,-0.005491461139172316,-0.05983070656657219,-0.017663978040218355,0.06119096651673317,0.0103038614615798,0.004239622037857771,-0.03314827010035515,-0.030491743236780168,0.022291675209999086,-0.054584864526987079,-0.019448643550276758,0.0548972487449646,0.12587910890579225,0.06511353701353073,0.1117500588297844,0.05740141123533249,-0.08898714929819107,0.03405367583036423,0.06456226110458374,-0.09451938420534134,0.005722144152969122,0.014627478085458279,0.029990825802087785,-0.0531868040561676,0.03999963775277138,0.017787063494324685,-0.10884081572294235,-0.0010433979332447053,0.05527976527810097,0.015076561830937863,0.018194109201431276,-0.03781986981630325,-0.06843309104442597,0.12828049063682557,0.12169458717107773,-0.0223468616604805,0.07700023055076599,-0.07283298671245575,0.046443939208984378,0.09740353375673294,0.005568923894315958,0.004680235404521227,0.09082981199026108,-0.08528830856084824,0.040561385452747348,-0.10795854777097702,0.12568245828151704,-0.0027301167137920858,0.10785901546478272,0.08851838856935501,-0.009483220987021923,0.0008275224827229977,-0.10104910284280777,0.025804849341511728,0.0022216339129954578,0.037254270166158679,-0.08195970952510834,0.04239827021956444,-0.003906576428562403,-0.025997333228588105,0.053399890661239627,0.105136938393116,0.04329069331288338,-0.027405528351664544,0.09294816106557846,0.010053012520074845,-0.024198677390813829,0.037452250719070438,-0.005263435188680887,0.05854363366961479,0.05972728505730629,0.07893272489309311,-0.040806181728839877,0.011473488062620163,0.12963657081127168,-0.038510873913764957,0.10169227421283722,-0.0628034770488739,0.07087084650993347,-0.03827750310301781,-0.05832912027835846,-0.047565821558237079,-0.02621724084019661,-0.028730211779475213,0.07039115577936173,0.016155799850821496,0.10863155871629715,-0.013454520143568516,0.00028957839822396636,-0.0312050674110651,0.013666560873389244,0.00512259965762496,0.06939780712127686,-0.044585082679986957,-0.02981123887002468,-0.05856412649154663,-0.06463555991649628,-0.004089930094778538,-0.032206930220127109,0.01796795055270195,-0.03863551467657089,-0.009571900591254235,0.05997084081172943,0.00604978809133172,-0.024778272956609727,-0.0663478672504425,0.004328208509832621,0.026004783809185029,0.014183590188622475,0.09998966008424759,-0.0607132650911808,-0.01852542720735073,0.028380170464515687,0.10290464758872986,-0.03474299609661102,0.018990004435181619,0.06136472523212433,0.018315207213163377,-0.05844467505812645,0.037891585379838946,-0.035756807774305347,-0.06613264232873917,0.10893061757087708,-0.10088729113340378,-0.006536359433084726,0.04640982672572136,0.029854878783226014,-0.019052065908908845,-0.03458615019917488,-0.076234832406044,0.03641384467482567,0.0460735447704792,-0.003195555182173848,0.08436384797096253,-0.031964946538209918,-0.017403502017259599,-0.0787014588713646,-0.07645674049854279,-0.1276216059923172,-0.05172324925661087,0.02726678177714348,-0.014513477683067322,-0.041489969938993457,-0.023777347058057786,0.05115741118788719,0.04952584579586983,0.06137923523783684,0.06769848614931107,0.06260351091623306,0.024208558723330499,0.07286012172698975,0.03628801181912422,0.06599500775337219,0.05691619589924812,-0.0768745169043541,-0.06717609614133835,0.07474960386753082,0.027331124991178514,-0.06641840189695358,0.07045141607522965,-0.031771350651979449,0.017183423042297365,0.0787050649523735,-0.16786274313926698,0.05692388862371445,-0.08779183775186539,0.01211976632475853,0.0072772689163684849,0.027428170666098596,-0.023509986698627473,0.0022834958508610727,0.020855257287621499,0.0653504729270935,0.05545457452535629,-0.05523015558719635,0.1041998416185379,-0.04131389781832695,0.013455047272145749,0.07109220325946808,-0.021961281076073648,0.05720237269997597,-0.1301300972700119,-0.03755093738436699,0.021021967753767968,-0.08739038556814194,0.016719017177820207,-0.15737810730934144,-0.016901249065995218,0.04608102887868881,-0.10025281459093094,-0.05037016049027443,0.04775240272283554,-0.08782092481851578,-0.003479644423350692,0.034809425473213199,-0.02028498612344265,-0.05890994518995285,0.09373441338539124,0.03251979127526283,0.03729687258601189,-0.03788331151008606,0.039266929030418399,-0.0849914476275444,0.09717236459255219,-0.03089400753378868,-0.01984226703643799,-0.0756654366850853,-0.01053194236010313,0.012830382212996483,0.0016609543235972524,0.1143399253487587,0.052078425884246829,0.028247322887182237,-0.10848063230514527,0.026722295209765435,-0.04582633078098297,0.00003680595909827389,0.028880948200821878,0.02499634400010109,0.07390200346708298,0.031184783205389978,0.042185358703136447,0.008256212808191777,0.11409258097410202,-0.02914598025381565,-0.048771798610687259,-0.0208438728004694,-0.013709170743823052,-0.11207477003335953,-0.027866560965776445,-0.00558022316545248,0.00041670462815091014,-0.19254744052886964,-0.11474906653165817,-0.03809134289622307,0.08364465832710266,-0.05356637015938759,0.014170491136610508,0.026067618280649186,0.10110916942358017,0.032367631793022159,0.0971684679389,0.1255703866481781,-0.020399844273924829,-0.021152066066861154,-0.01587030105292797,-0.031002074480056764,-0.06208723038434982,0.035551365464925769,0.020987166091799737,-0.013919073157012463,-0.03763619437813759,-0.04711715877056122,0.0676170215010643,0.047866739332675937,0.048354241997003558,-0.05139099061489105,0.060481175780296329,-0.06588096171617508,-0.09342679381370545,0.00539181474596262,0.017340602353215219,0.053573619574308398,-0.007737256586551666,0.06254152208566666,-0.06944804638624191,0.11501678079366684,0.057803068310022357,-0.1271979808807373,0.011676879599690438,0.000659463694319129,0.012213407084345818,-0.010217669419944287,-0.04962848871946335,0.0023894605692476036,0.0406440794467926,0.024643070995807649,-0.08569087833166123,0.06509928405284882,0.03882203996181488,-0.04307358339428902,-0.04998374730348587,-0.061512406915426257,0.02368233911693096,0.05980318412184715,0.09417803585529328,0.04261447861790657,0.06140389293432236,0.025208957493305208,0.01749802753329277,0.07256311923265457,0.0222614873200655,-0.021960629150271417,-0.08510246127843857,-0.02891436591744423,-0.006103315856307745,-0.02811470814049244,-0.09078463166952133,-0.004324849229305983,-0.1037045419216156,-0.007848791778087616,-0.02154259756207466,-0.01660822331905365,-0.0032075021881610157,-0.07076799869537354,-0.066259004175663,-0.16403381526470185,0.037322159856557849,-0.02991935983300209,0.025682635605335237,0.01531688030809164,0.06634353846311569,-0.022485144436359407,0.04724167659878731,0.005802708677947521,-0.05093957111239433,-0.021201346069574357,0.016684137284755708,-0.03324159234762192,0.005970429163426161,0.08284375816583634,-0.021501891314983369,-0.06723987311124802,-0.042994555085897449,-0.03707445040345192,-0.11150476336479187,0.04949416220188141,-0.0984189584851265,-0.020925266668200494,-0.0010814659763127566,0.021520918235182763,-0.057722240686416629,0.13418909907341004,0.03233262896537781,0.08931127190589905,0.04136870801448822,0.01421660091727972,-0.01721339300274849,0.06063832715153694,-0.06657293438911438,-0.020053468644618989,-0.014911002479493618,-0.017699914053082467,-0.04120495170354843,-0.12983933091163636,0.07024595886468888,-0.04385947436094284,0.017962060868740083,0.12035378813743592,0.03640976920723915,0.010916421189904213,-0.05299616977572441,0.03733475133776665,0.012503114528954029,-0.015656709671020509,0.02516465075314045,0.05296158790588379,0.04511401802301407,-0.06985551118850708,0.04790022596716881,0.03812495991587639,-0.013165413402020932,-0.002929647918790579,0.011460746638476849,0.009800218977034092,-0.06410417705774307,-0.062317825853824618,-0.0055614979937672619,-0.01843239925801754,0.04776514321565628,0.0005491158808581531,-0.046234142035245898,0.08953758329153061,0.04702386632561684,0.0013015212025493384,-0.03763139247894287,-0.0035729631781578066,0.017312724143266679,0.021026697009801866,0.039111800491809848,0.09407155215740204,-0.006245585158467293,0.021455833688378335,-0.009105151519179345,0.06041540205478668,0.1130012720823288,0.0760071650147438,0.011364955455064774,-0.09340324997901917,-0.07096710801124573,0.007523708511143923,0.039377160370349887,-0.03686639666557312,0.09105448424816132,0.004082657862454653,-0.1023017168045044,-0.05642233416438103,0.047991205006837848,0.03337157145142555,-0.014278541319072247,-0.07309948652982712,-0.00822396483272314,0.06718296557664871,0.0364365354180336,-0.0044958386570215229,0.05293983966112137,0.04457782208919525,-0.006950593553483486,0.01189539022743702,-0.17854979634284974,0.002155505819246173,-0.10889440029859543,-0.033027008175849918,-0.013690982945263386,-0.02531406469643116,-0.1135343536734581,0.016392825171351434,0.03326115384697914,-0.006333543919026852,-0.014179856516420842,0.008185126818716526,-0.12092740088701248,0.025959545746445657,0.029688039794564248,0.027998732402920724,0.042134903371334079,0.028536474332213403,-0.020196374505758287,-0.036167845129966739,-0.01365067157894373,-0.007787481416016817,-0.07718787342309952,-0.04126724600791931,-0.05284680053591728,-0.16161422431468965,0.052338000386953357,-0.047970473766326907,-0.05854622274637222,0.00246322900056839,-0.06431695818901062,0.04014533758163452,0.011606032028794289,0.0716344490647316,0.0051915994845330719,-0.0754348412156105,-0.07494506239891052,-0.026812274008989335,-0.005447490140795708,-0.006246862001717091,-0.0802840068936348,-0.04531193524599075,-0.01579640619456768,-0.020480826497077943,0.11208847910165787,0.06558240950107575,-0.04800876975059509,0.032840900123119357,0.08313925564289093,-0.13588136434555055,-0.10170359909534455,0.08820567280054093,-0.07956930994987488,0.005107096862047911,0.08600869029760361,0.0031246854923665525,-0.1721157282590866,-0.037990447133779529,0.02799629420042038,-0.06998450309038162,0.08564160764217377,-0.011832702904939652,0.03695141151547432,0.01273533795028925,-0.000060752085119020194,-0.0031904256902635099,-0.07120006531476975,-0.04649975150823593,0.02320367470383644,-0.038554418832063678,-0.10799624770879746,-0.07496922463178635,-0.04534381628036499,0.04090016335248947,-0.008181210607290268,-0.07041411101818085,0.09390746057033539,-0.07991407811641693,-0.058964941650629047,0.00019028372480534017,0.0008538321708329022,0.0012136956211179495,0.016719643026590349,-0.02699081227183342,0.077029287815094,0.01688200980424881,-0.06976930797100067,-0.11459396779537201,-0.04196968302130699,0.02059931680560112,0.020381970331072809,-0.006466634571552277,0.042611263692379,-0.006510875653475523,-0.13865502178668977,0.05566633492708206,0.005098841618746519,-0.03996364772319794,-0.0657048150897026,0.1051521897315979,0.0715131163597107,0.0004020601627416909,-0.02061503380537033,0.11336364597082138,0.10792792588472367,0.03528875485062599,-0.06395018845796585,-0.03581486642360687,0.05141186714172363,-0.018955426290631295,-0.01714317686855793,0.016454266384243966,0.1235772967338562,0.011108791455626488,-0.09307294338941574,-0.03461182862520218,0.02506927400827408,0.02893262729048729,0.17344270646572114,0.036795474588871,-0.04515460133552551,-0.10060573369264603,-0.10792283713817597,-0.003401904832571745,0.08252032846212387,0.011834339238703251,0.10364262759685517,-0.010621624067425728,0.02754957601428032,0.0586361326277256,-0.019246896728873254,0.09976276010274887,0.029531899839639665,-0.022848783060908319,-0.049178075045347217,-0.05761580169200897,0.00434181047603488,-0.027385249733924867,-0.06742604821920395,-0.06355123966932297,-0.1112622320652008,-0.05266881361603737,0.10772895067930222,-0.13435448706150056,0.027040397748351098,0.006124540232121944,0.061722252517938617,-0.05573175847530365,0.06756549328565598,0.07839740067720413,0.0010797425638884307,0.055231500416994098,0.04537389799952507,0.0026509424205869438,-0.05453267693519592,0.08858422935009003,-0.04044715315103531,0.05869235843420029,0.047850143164396289,0.034709785133600238,-0.03122957982122898,-0.052026763558387759,0.008270240388810635,0.07229623198509217,-0.04998136684298515,0.05094485357403755,-0.07549664378166199,0.019630344584584237,0.03179057314991951,0.04345732182264328,0.0718856155872345,0.048252079635858539,0.12442424893379212,0.1271839737892151,-0.05022707208991051,0.031028736382722856,0.0679795891046524,-0.11671522259712219,0.05138678476214409,0.04813820868730545,0.09237406402826309,0.006598352920264006,-0.09718989580869675,0.0926079973578453,0.10883740335702896,0.03179076313972473,-0.04564525932073593,-0.07522240281105042,-0.025041215121746064,-0.015341061167418957,0.025074148550629617,0.01919170655310154,0.05614987015724182,0.02423546463251114,0.055554065853357318,0.06565447151660919,0.05650462582707405,-0.06349315494298935,0.007241369690746069,0.11198537051677704,-0.024075794965028764,0.022870881482958795,-0.09256035834550858,0.06194893270730972,-0.02174486219882965,-0.012322931550443173,-0.021946188062429429,-0.03487140312790871,0.01589583046734333,0.0064511834643781189,-0.022404640913009645,-0.008182400837540627,-0.09062667191028595,0.016972176730632783,-0.04681851714849472,0.03459736332297325,0.12530113756656648,-0.058964069932699206,0.026698779314756395,-0.0011388508137315512,0.014032906852662564,0.03695401921868324,0.006279793567955494,0.032781120389699939,0.0012757261283695698,-0.0016057929024100304,-0.04847629368305206,0.1133473813533783,-0.11383339017629624,-0.022974440827965738,-0.03027012199163437,-0.010235398076474667,0.0370018444955349,0.13305829465389253,0.06562269479036331,-0.03928756341338158,0.07489108294248581,-0.015536034479737282,-0.02521924115717411,-0.16692058742046357,-0.0072015998885035519,-0.03545621037483215,-0.018335800617933275,-0.023302791640162469,-0.11134279519319534,-0.0199138130992651,-0.02335020713508129,0.14349503815174104,-0.15429669618606568,0.09542729705572128,-0.007224837318062782,-0.07325460016727448,-0.06361106038093567,0.051256198436021808,-0.04733607545495033,-0.021531417965888978,-0.0027965425979346039,0.01584729179739952,-0.03467132896184921,0.018857017159461976,-0.053917404264211658,0.033077578991651538,-0.052225563675165179,0.03057967871427536,0.1370338648557663,-0.12919604778289796,-0.0007945457473397255,0.08281027525663376,-0.021223319694399835,-0.06548751145601273,0.05611170083284378,-0.07605753093957901,-0.03600515425205231,-0.029752394184470178,0.0796760618686676,-0.0338667556643486,-0.024805985391139985,0.01887432299554348,0.003670915262773633,0.028743838891386987,0.018209801986813546,0.06392646580934525,0.05897652357816696,0.06015225872397423,-0.14128948748111726,0.013049067929387093,0.04696238413453102,-0.03226308152079582,-0.016469750553369523,0.07756324112415314,0.01000987645238638,0.031167179346084596,-0.0638197585940361,-0.057544268667697909,0.0112816346809268,0.01909184455871582,0.054379429668188098,0.008366876281797886,-0.002686105202883482,0.005895547568798065,0.022685937583446504,-0.013267353177070618,-0.026164451614022256,-0.03576577082276344,-0.025295672938227655,0.05639098957180977,0.08165600150823593,-0.021986395120620729,-0.0016082070069387556,0.012983378954231739,-0.04344309866428375,-0.059827227145433429,0.02930404432117939,-0.06653134524822235,0.05160636827349663,-0.020205816254019738,0.0612335130572319,0.02614051289856434,-0.09854672849178314,-0.07345633953809738,-0.01322786882519722,-0.11279800534248352,-0.02244175225496292,-0.02144164778292179,0.056328967213630679,0.04115365818142891,-0.061643753200769427,-0.05978440120816231,-0.007562690880149603,0.025527719408273698,0.032560206949710849,0.046582289040088657,-0.07079943269491196,-0.026756444945931436,0.04829106852412224,0.017092721536755563,0.06498789042234421,0.1104227602481842,0.07352440804243088,-0.0368540920317173,0.05575224384665489,0.061754267662763599,0.010100480169057846,-0.041076526045799258,0.015204505994915963,-0.05281272158026695,-0.06077040359377861,0.10316496342420578,0.026607781648635865,-0.03118659183382988,-0.010137658566236496,0.028420088812708856,0.01064225658774376,-0.029787350445985795,0.022912556305527688,-0.02427247352898121,0.04684422165155411,0.07206936925649643,-0.049047697335481647,0.07439687848091126,0.014904651790857315,0.0807366594672203,0.1251227706670761,-0.06518944352865219,0.03922203183174133,-0.03224958851933479,-0.11387019604444504,-0.06453146040439606,0.05961121618747711,-0.0949222669005394,0.09204547107219696,0.012463677674531937,-0.0396871343255043,0.05020897835493088,0.04534076899290085,0.08059588819742203,-0.07234840840101242,-0.012926982715725899,0.11311729997396469,0.054563164710998538,0.00036898147664032876,-0.03463292866945267,-0.04474138468503952,0.02124113403260708,0.007896555587649346,0.04627019166946411,-0.0709247961640358,0.047917451709508899,0.10506714135408402,0.03688223287463188,-0.01162398885935545,0.026999371126294137,0.07687301933765412,-0.036400169134140018,0.06582704931497574,0.08970046043395996,-0.048938095569610599,0.08127147704362869,0.03230512514710426,0.021375607699155809,-0.012740056030452252,0.06495526432991028,-0.033600471913814548,-0.052688118070364,-0.03248228877782822,-0.04616042971611023,0.035225868225097659,0.017285529524087907,0.01337986346334219,-0.020423607900738717,-0.1367177963256836,-0.052378375083208087,0.005219333805143833,0.010012744925916195,0.004683994688093662,0.05760999396443367,-0.04333488643169403,-0.060361288487911227,0.014657284133136273,-0.007449697237461805,0.052554335445165637,0.08688429743051529,-0.019356396049261094,-0.06338618695735932,0.09167177975177765,-0.020895767956972123,0.06453348696231842,-0.08802507072687149,-0.027506204321980478,0.09267209470272064,-0.004664207808673382,-0.024759743362665178,-0.019851472228765489,-0.01600060611963272,0.08822885155677796,0.013401773758232594,0.0016015629516914487,-0.0023087477311491968,0.018679533153772355,-0.12518613040447236,0.005209255497902632,-0.043612271547317508,0.11374148726463318,-0.03593616187572479,0.06963273137807846,0.010264810174703598,0.04242665320634842,0.12087342888116837,0.09815043956041336,0.03388305380940437,0.06566230207681656,-0.041248422116041186,-0.08606225252151489,-0.02537892386317253,0.13177452981472016,-0.08315300196409226,0.012811095453798771,0.006824975833296776,0.05278538167476654,-0.002184543525800109,0.09244713932275772,-0.0195552259683609,-0.11876730620861054,-0.017629200592637063,-0.09719180315732956,-0.07861864566802979,-0.06772543489933014,0.05262449383735657,0.05135920271277428,0.05128316208720207,-0.04049726948142052,-0.02753940038383007,0.08215036243200302,-0.028876960277557374,0.07082704454660416,-0.03525857999920845,-0.04405064508318901,0.04402103275060654,-0.08515378087759018,0.1183861494064331,0.012072684243321419,0.004154625814408064,-0.07704798132181168,0.08818469941616059,0.11012687534093857,0.054795194417238238,0.05794750899076462,-0.04066336899995804,-0.04354497790336609,-0.04216156154870987,-0.1452576220035553,0.06009306386113167,-0.04910469800233841,0.06669897586107254,0.15082526206970216,-0.06244079768657684,0.10236348211765289,0.058679912239313129,-0.06740975379943848,0.14259836077690125,0.04270564764738083,0.1040690466761589,0.17645381391048432,0.07102493941783905,0.04856505244970322,0.117176353931427,0.01919119991362095,0.06437917798757553,0.049569204449653628,-0.00782058946788311,-0.041633427143096927,0.03569183498620987,0.014794488437473774,-0.047897111624479297,0.04448467493057251,0.016333000734448434,0.1793789118528366,-0.0020402551162987949,0.001499686622992158,0.07495896518230438,0.018407484516501428,0.0890718400478363,-0.010189593769609928,0.014288924634456635,0.03094877302646637,0.033536646515131,-0.0933590903878212,-0.04167427122592926,0.16978517174720765,0.10362164676189423,-0.007943905889987946,0.11566945165395737,0.13684670627117158,-0.050474587827920917,0.012863311916589737,-0.00018108522635884583,-0.08825726062059403,0.059744227677583697,0.13604100048542024,0.11013993620872498,0.038344550877809528,-0.010309681296348572,0.02239905670285225,0.11919888108968735,-0.04410756379365921,-0.027306998148560525,-0.01040735375136137,0.036952678114175799,0.044563330709934238,0.042698536068201068,0.06803306937217713,0.0055009895004332069,0.13363808393478394,0.20410849153995515,-0.0053477296605706219,-0.07640094310045243,0.05743400380015373,-0.00952480174601078,0.011997995898127556,-0.014755004085600376,-0.159274622797966,0.05105743929743767,-0.0853070616722107,0.11666271835565567,0.012547836638987065,0.08731285482645035,0.0807478278875351,0.08288485556840897,-0.09633324295282364,-0.10752443224191666,-0.008154839277267456,0.13221475481987,0.07072915136814118,0.10482677072286606,0.021416954696178438,0.07422832399606705,-0.09403514862060547,0.11195874214172363,0.04215841367840767,-0.020734386518597604,-0.03628278896212578,-0.12489313632249832,0.016494080424308778,0.02857651188969612,0.014440953731536866,0.05029672756791115,-0.10548193007707596,0.049643732607364658,0.1403556764125824,-0.03535713255405426,-0.0470476858317852,0.018952522426843644,0.022386686876416208,-0.0011808457784354687,0.00622193980962038,0.005004290025681257,0.062387388199567798,0.0837133452296257,0.012532354332506657,-0.05719617381691933,0.04116396978497505,0.03150893375277519,0.08061650395393372,-0.012459266930818558,0.014988763257861138,0.09300105273723602,-0.0023021057713776829,-0.060040831565856937,-0.059077341109514239,0.15895158052444459,0.06875783950090409,0.0325801707804203,0.07830295711755753,-0.0988510400056839,-0.09059207886457443,-0.00945896003395319,-0.03737691417336464,-0.041403383016586307,0.06384114921092987,-0.030687643215060235,-0.057218100875616077,0.02773316763341427,0.03705459460616112,0.03659723326563835,0.008977426216006279,0.07671865820884705,-0.10011836886405945,-0.04271082952618599,-0.062212903052568439,-0.057529982179403308,-0.12678077816963197,0.05653409659862518,-0.09202851355075836,-0.03196829929947853,0.010470022447407246,0.12215446680784226,-0.06321953237056732,0.0005857185460627079,0.009730382822453976,-0.05263849347829819,0.009754658676683903,-0.06138792261481285,-0.031727030873298648,-0.005540756043046713,0.0840841606259346,0.08371400833129883,-0.09375974535942078,0.05605040863156319,0.026357874274253846,-0.02878391183912754,0.14562878012657166,-0.07469329237937927,-0.17395417392253877,0.03364753723144531,0.03018207475543022,0.052627503871917728,0.02688451111316681,0.03817225247621536,0.04108041152358055,0.04233448579907417,-0.015652408823370935,-0.019305676221847535,0.01778341829776764,0.08241761475801468,-0.043572455644607547,-0.041010577231645587,0.07176186144351959,-0.08697859197854996,-0.01950065791606903,-0.048187192529439929,0.04763916879892349,0.0800020769238472,0.013256842270493508,0.08917401731014252,-0.0041608563624322418,-0.10007575899362564,0.017491081729531289,-0.06585343182086945,-0.09707478433847428,-0.0028799695428460838,-0.029739052057266237,0.001975377555936575,-0.028952032327651979,0.028054045513272287,-0.01470235362648964,-0.06018515303730965,0.03339199349284172,0.019836215302348138,-0.02053513005375862,0.008408704772591591,0.03662168234586716,0.06714021414518357,0.11714443564414978,-0.007984722964465618,0.13301222026348115,0.04628308489918709,0.04568937420845032,0.042717672884464267,0.01614977791905403,0.10472266376018524,-0.050113774836063388,0.02003348059952259,-0.029315566644072534,-0.20291540026664735,-0.04567288979887962,-0.023581890389323236,-0.08490148931741715,-0.073444664478302,-0.07781863957643509,-0.06215844675898552,-0.06542641669511795,0.018652861937880517,-0.06018618866801262,0.05682628974318504,0.026954861357808114,0.0951702892780304,-0.0838412418961525,0.060573358088731769,0.004969380795955658,0.06770823895931244,0.001947041368111968,0.038632042706012729,0.07488138973712921,-0.059592001140117648,-0.04924330860376358,-0.07225851714611054,-0.07986902445554733,-0.14455503225326539,-0.017666973173618318,0.015563682653009892,0.036909595131874087,0.019735567271709443,0.04730383679270744,0.08646281063556671,0.02716437540948391,0.05509961023926735,-0.015016168355941773,0.07127422094345093,0.020269501954317094,-0.0482211709022522,0.18401595950126649,0.015440004877746106,0.08194905519485474,0.061631422489881518,-0.05561840906739235,0.10277256369590759,-0.027674883604049684,0.00012980510655324906,-0.02578534372150898,-0.03182392567396164,0.03499266132712364,0.001718555809929967,-0.02793024107813835,-0.02292030304670334,-0.03558653965592384,0.007581593934446573,-0.06128585338592529,0.07488463073968888,-0.04522157832980156,-0.029096897691488267,0.03475094214081764,0.035770341753959659,0.0005893494817428291,-0.006706171203404665,0.08985098451375961,-0.10547789931297302,-0.07455548644065857,0.04011800140142441,0.0300607830286026,-0.04026707261800766,0.1524510532617569,-0.022411515936255456,-0.09151718765497208,0.08776472508907318,0.0045298561453819279,0.01986800879240036,0.04533785209059715,-0.045943498611450198,0.07033917307853699,-0.009601633064448834,-0.0017335440497845412,0.070116326212883,-0.12484912574291229,-0.020907193422317506,0.022639309987425805,-0.020038623362779619,0.05864783376455307,0.07472502440214157,-0.040805570781230929,0.03611038997769356,0.03557256609201431,0.08969691395759583,0.020642410963773729,0.032978735864162448,0.0654548704624176,-0.024415379390120508,-0.012086786329746247,-0.007244936190545559,0.05406299978494644,-0.04128154367208481,-0.06347471475601196,-0.07897444069385529,-0.051919858902692798,0.03692851588129997,-0.07686980068683624,-0.04967165365815163,-0.04862631484866142,-0.03184843435883522,-0.0256539024412632,-0.0016908446559682489,0.020733211189508439,-0.0469963401556015,0.02133738249540329,-0.12882423400878907,-0.019650522619485856,-0.04169514775276184,-0.03366519510746002,-0.04174983501434326,-0.0826835110783577,-0.05165337398648262,-0.10889536142349243,0.09095939993858338,-0.020897554233670236,0.05411818251013756,0.04687095060944557,0.02536454237997532,-0.012205401435494423,-0.036928728222846988,-0.04847891628742218,-0.0034781605936586859,0.011523754335939885,-0.015399794094264508,0.06848730891942978,0.06995760649442673,0.05564090982079506,-0.079599529504776,-0.00694699864834547,-0.07902240008115769,0.009749017655849457,0.035623058676719668,-0.02971918135881424,-0.09388573467731476,-0.03350481390953064,-0.0792606920003891,-0.03249877318739891,0.007997604086995125,0.011394363828003407,-0.03825908526778221,0.039326682686805728,-0.12841981649398805,-0.09544996172189713,-0.047249045222997668,-0.05080200731754303,0.08899489790201187,-0.021315068006515504,0.03192747011780739,0.042155083268880847,-0.058739934116601947,0.014459664933383465,0.06647052615880966,0.0142293032258749,0.0007106795674189925,-0.020784804597496988,-0.008826865814626217,-0.011062546633183957,0.08539342880249024,-0.07053419947624207,-0.0009856231044977904,0.038619499653577808,0.07720628380775452,0.14661279320716859,0.08550000190734863,-0.08641066402196884,0.1689281016588211,-0.03119736723601818,-0.008337566629052163,-0.0012501813471317292,-0.016013968735933305,0.14993061125278474,0.09641341865062714,-0.016095340251922609,0.03773260489106178,0.006228444166481495,-0.022067414596676828,0.025757692754268647,0.01961556077003479,-0.0763007253408432,0.05196243152022362,-0.018271083012223245,0.05029106140136719,0.010227145627140999,0.09841913729906082,-0.1055983230471611,-0.02077553980052471,-0.03294074162840843,0.11109201610088349,-0.08845734596252442,0.06811286509037018,0.17561782896518708,0.06518036127090454,0.08488361537456513,0.0020359402988106014,0.024293767288327218,0.06585866957902909,0.09409817308187485,0.0034186814446002247,0.039568737149238589,-0.032118067145347598,0.05598759651184082,0.029293904080986978,-0.07993344217538834,-0.044947437942028049,0.049619410187006,-0.08609983325004578,-0.0682542622089386,0.048002615571022037,-0.007172139827162027,-0.11521328240633011,-0.016865959390997888,0.020627055317163469,0.08430099487304688,0.07097416371107102,-0.05089493468403816,0.004784878343343735,0.07464174926280976,0.028437882661819459,0.06371649354696274,0.07225707918405533,0.0656207725405693,0.028803469613194467,0.02764360047876835,-0.06089833006262779,-0.061583489179611209,-0.036629755049943927,-0.09060365706682205,0.02478964626789093,-0.014988236129283905,0.036118652671575549,0.04546117037534714,-0.0058053177781403069,-0.11338716745376587,0.032216716557741168,-0.0218418687582016,0.021219659596681596,0.07181290537118912,0.07610061019659043,0.07731115818023682,0.027002785354852678,-0.0007208887836895883,0.015810200944542886,-0.0002934863150585443,0.047782544046640399,0.030598141252994539,0.14019787311553956,0.0015188477700576187,-0.02810264565050602,-0.05256560072302818,0.1020730659365654,-0.013551979325711728,0.0672946497797966,0.028668366372585298,-0.13247869908809663,0.026342077180743219,-0.08082135766744614,0.14812487363815309,0.09182854741811753,-0.08349065482616425,-0.026087934151291848,-0.02166888490319252,0.13958978652954102,0.041721489280462268,0.03935382515192032,-0.016160741448402406,-0.015226572751998902,-0.04164039343595505,0.11143316328525543,-0.0742616131901741,-0.01269038300961256,-0.033698972314596179,0.059357091784477237,-0.017533453181385995,-0.13279560208320619,-0.011504112742841244,-0.007149536162614822,-0.03945033997297287,-0.08102169632911682,-0.04162287712097168,-0.017265677452087404,0.0293267834931612,0.06589404493570328,0.09612945467233658,0.08045981824398041,0.007000388577580452,0.13114072382450105,0.1504083275794983,0.0028885670471936466,-0.09572525322437287,0.03321073204278946,0.06716588139533997,-0.008848669938743115,0.02332007884979248,0.022143511101603509,0.024693910032510759,0.046035680919885638,0.030725203454494478,0.02020019292831421,-0.08662750571966171,-0.07774707674980164,0.11106552928686142,0.06306317448616028,-0.014945373870432377,0.10734706372022629,-0.040929827839136127,-0.013769399374723435,-0.011098888702690602,0.028053773567080499,0.06091780588030815,-0.006334200967103243,0.030567312613129617,0.039212219417095187,-0.023722263053059579,0.035157136619091037,0.016461441293358804,-0.06427998840808869,-0.0018426019232720137,0.05155124515295029,-0.05286896973848343,-0.07713077962398529,-0.14194799959659577,-0.024814719334244729,-0.01222491916269064,0.011816006153821946,-0.07967715710401535,0.0734102725982666,-0.06358972191810608,-0.06879472732543946,0.06564151495695114,0.13418638706207276,0.10988517105579376,-0.010333084501326085,0.007104439195245504,0.00686483783647418,0.0204120185226202,-0.0452045202255249,-0.011647144332528115,0.022946186363697053,0.056663718074560168,-0.043331578373909,-0.01732388138771057,0.006262632552534342,-0.10806327313184738,0.09068723767995835,0.057603634893894199,-0.07171866297721863,0.13144037127494813,0.11342993378639221,0.03311988338828087,0.13235728442668916,0.024862373247742654,0.060410141944885257,0.04746971279382706,-0.030012911185622217,0.06843285262584686,-0.06420020014047623,-0.09191621094942093,0.0274746622890234,0.0032750130631029608,-0.0063208709470927719,-0.033967528492212298,-0.002899611834436655,-0.08390725404024124,0.006434863433241844,0.01947234570980072,0.018101567402482034,-0.011460456997156144,0.10001279413700104,0.0491805262863636,-0.007405072450637817,-0.026152946054935457,-0.0011241498868912459,0.07057571411132813,-0.07217757403850556,-0.054748740047216418,0.0018349586753174663,0.06688284873962403,-0.012997504323720932,0.008744802325963974,0.013704642653465271,-0.05675971508026123,-0.036546140909194949,-0.017427559942007066,0.07422330975532532,0.038362354040145877,-0.03466912731528282,0.0018437817925587297,-0.015740515664219857,0.03648467734456062,-0.0596795491874218,0.031011292710900308,0.03495001792907715,-0.12250882387161255,0.09310539811849594,0.10529762506484986,0.08992819488048554,-0.05754365399479866,0.002191793406382203,0.09872599691152573,0.030313443392515184,-0.07562180608510971,-0.15428924560546876,-0.10250269621610642,0.014530880376696587,0.011797133833169937,-0.09521109610795975,-0.05475233495235443,-0.0636841207742691,-0.007240510080009699,-0.02081744745373726,-0.06575923413038254,-0.07753148674964905,-0.08033198118209839,0.011858250945806504,0.011081740260124207,0.01426988746970892,0.03786161169409752,0.13185833394527436,-0.04875464737415314,0.023622915148735048,-0.02086815983057022,-0.11100791394710541,0.010301870293915272,-0.04738478362560272,0.01778244972229004,-0.09541106969118118,-0.04842379689216614,0.02943187579512596,-0.060799866914749148,-0.018540935590863229,0.0082986019551754,-0.15028934180736543,0.057447247207164767,-0.07634991407394409,0.02994968183338642,-0.02350984886288643,-0.033379845321178439,0.099302738904953,-0.022184383124113084,0.07327491044998169,0.04185201972723007,-0.007264832966029644,0.09651429951190949,0.06631125509738922,0.025998955592513086,-0.009880530647933483,-0.09345665574073792,-0.14987479150295258,0.024780789390206338,-0.0567341074347496,-0.03438977897167206,-0.03198188543319702,-0.0019311553332954646,-0.013846052810549736,-0.1589673012495041,-0.04842483624815941,-0.015012985095381737,0.028645526617765428,0.026706572622060777,-0.019550057128071786,0.016364233568310739,0.017736678943037988,-0.05579102411866188,0.16857728362083436,0.04347653314471245,0.031121017411351205,-0.015889151021838189,-0.005452660843729973,0.02426108904182911,-0.09915877133607865,-0.056655675172805789,-0.0944601371884346,-0.031099800020456315,-0.18820513784885407,-0.020882675424218179,-0.04977036640048027,-0.027972646057605745,-0.1508810818195343,0.054532866925001147,-0.0768943801522255,0.05116184055805206,-0.02626461535692215,-0.02737610787153244,0.06149832159280777,0.06582581996917725,0.07168786227703095,-0.05935730040073395,0.03304138034582138,-0.027654608711600305,0.04837937280535698,-0.006585040595382452,0.06119725853204727,0.07030798494815827,-0.1954977810382843,-0.12117435783147812,-0.0032509590964764358,-0.0027581611648201944,-0.033434491604566577,-0.0494704470038414,0.09346862882375717,0.10211962461471558,-0.017036521807312967,-0.06779396533966065,0.05091150477528572,0.11404780298471451,0.002806667238473892,0.021774116903543474,0.07935308665037155,0.06557086110115051,-0.02933988720178604,0.04374098777770996,0.11234753578901291,0.04355785623192787,0.11395346373319626,0.040405094623565677,0.0029229680076241495,-0.05572054535150528,0.018267419189214708,0.013967015780508519,0.05143924430012703,-0.0834951400756836,-0.021382596343755723,0.051104556769132617,0.059252943843603137,-0.036947183310985568,-0.01885875128209591,0.06087972968816757,-0.02245868742465973,0.10682988166809082,0.08199907094240189,-0.08412542939186096,-0.1131291538476944,-0.02076948992908001,-0.06091705709695816,0.01385168731212616,0.12261144071817398,-0.012839775532484055,0.11606068164110184,0.06952841579914093,-0.09597241878509522,-0.06825686246156693,-0.09209631383419037,0.04136073216795921,-0.028808290138840677,0.04266104847192764,-0.03800155222415924,-0.0748126357793808,-0.012302120216190815,0.06746800243854523,0.02106703817844391,0.149457186460495,-0.0007848222157917917,0.014553130604326725,-0.05436047911643982,0.02379155345261097,0.02358902059495449,-0.06025118753314018,-0.035973213613033298,-0.0035886613186448814,-0.013544437475502491,-0.07843714952468872,0.048088666051626208,-0.04839010909199715,0.042284224182367328,-0.0043886518105864529,-0.05960403382778168,-0.03328657150268555,0.0065481895580887798,-0.031084604561328889,0.07502925395965576,-0.0052948035299777988,0.0046138884499669079,-0.008107858709990979,-0.018881110474467279,0.12261906266212464,-0.005042386706918478,0.03018486686050892,0.055263422429561618,-0.10055863112211228,-0.02617948316037655,0.018850794062018396,0.004863430745899677,0.0004230025806464255,0.11341510713100434,0.002851419383659959,-0.03806576132774353,0.02727873995900154,0.05023225024342537,-0.056767046451568606,-0.0302942655980587,-0.05406253784894943,-0.07227618992328644,-0.042386118322610858,-0.08539263159036637,0.0010302799055352808,0.0532531775534153,-0.019605591893196107,0.009898659773170948,0.04815073311328888,-0.0017440520459786058,-0.08039192855358124,-0.10759592801332474,0.08195261657238007,0.011620192788541317,-0.11661553382873535,-0.044035714119672778,-0.052325475960969928,0.10880213230848313,0.005459657870233059,0.0013510053977370263,0.1033538430929184,0.06396649777889252,-0.04112610965967178,-0.017118792980909349,-0.022863904014229776,0.04629962518811226,-0.024179501459002496,-0.054423462599515918,0.0003594864101614803,0.01109523605555296,0.07933536171913147,-0.09250455349683762,-0.006351567339152098,0.058827370405197147,-0.09450139850378037,-0.014337883330881596,0.0447622649371624,-0.04293762147426605,-0.01830340176820755,-0.07484837621450424,0.08266125619411469,-0.027986763045191766,-0.04731088504195213,-0.014179177582263947,-0.010641731321811676,-0.056402526795864108,0.02034088782966137,-0.033039435744285586,0.026934143155813218,-0.08068226277828217,-0.10905715823173523,0.027059640735387803,0.05171589180827141,0.04267514869570732,-0.0033606342040002348,0.0791972354054451,0.04023232311010361,-0.14169086515903474,-0.024703826755285264,0.09119148552417755,-0.015661394223570825,-0.12184881418943405,0.02490113489329815,-0.04420051723718643,0.042511459439992908,-0.172342911362648,0.06477047502994538,0.10353070497512818,-0.09655655175447464,-0.006392011418938637,-0.005971985403448343,0.01077663991600275,0.05930596590042114,0.017296405509114267,-0.1789514273405075,-0.12762849032878877,0.08446290343999863,-0.05567615479230881,0.11677459627389908,0.052690114825963977,0.008907942101359368,0.08708749711513519,-0.040639281272888187,0.06103724613785744,0.039726488292217258,-0.016340715810656549,-0.01692890375852585,-0.054357364773750308,-0.05384593456983566,-0.024522053077816964,-0.06911223381757736,0.05823143199086189,-0.034473758190870288,0.04000934585928917,-0.06980608403682709,0.09903787821531296,-0.07930824160575867,-0.08209286630153656,0.003526402870193124,-0.03755057975649834,-0.09181486815214157,-0.00802771095186472,0.09398166835308075,-0.07296732813119888,-0.05231786519289017,0.08163474500179291,-0.09557438641786576,0.1336747705936432,0.036232274025678638,0.03208388760685921,0.008571477606892586,-0.047569550573825839,-0.028604421764612199,0.008603140711784363,0.030873363837599756,-0.05544581264257431,-0.12240065634250641,-0.05703349784016609,-0.0615166611969471,-0.1126146987080574,-0.004580827429890633,-0.09827998280525208,0.10580656677484513,0.004030352458357811,0.07145269215106964,0.08720243722200394,0.0034057782031595709,0.042585812509059909,0.038684383034706119,-0.01758739724755287,-0.01901521347463131,0.03846868872642517,0.057677287608385089,0.06496202200651169,0.04649977758526802,0.026754526421427728,-0.026509996503591539,-0.001558347954414785,0.010770504362881184,0.02691936120390892,0.11660118401050568,-0.07851563394069672,-0.004023781977593899,-0.12584586441516877,0.06082427501678467,0.014076070860028267,-0.0335981622338295,0.003379936795681715,0.014072736725211144,-0.005726075731217861,0.05008834972977638,0.00885341688990593,-0.0023555487859994175,0.04354872927069664,0.016466060653328897,-0.023495692759752275,0.0026149963960051538,-0.011850155889987946,0.07601571083068848,0.0547945499420166,-0.0005744049558416009,0.1290372908115387,-0.014837075024843216,-0.014389644376933575,-0.05346358194947243,0.025576524436473848,-0.06716001778841019,-0.01679515838623047,-0.03874046728014946,-0.07550904154777527,-0.021340757608413698,-0.137766495347023,0.026726601645350457,-0.018671421334147455,0.10123137384653092,-0.025299036875367166,0.0008807686390355229,-0.011748508550226689,0.07614856958389282,0.10260261595249176,-0.008734251372516156,-0.01648569665849209,0.06933152675628662,0.03362252563238144,0.016286836937069894,-0.06675107032060623,-0.0869670882821083,0.03635340929031372,0.01761776953935623,0.005736606195569038,0.09740253537893295,-0.05201073735952377,-0.0478937141597271,-0.021087070927023889,-0.034047726541757587,-0.04925469309091568,0.01744368113577366,0.0039033356588333847,0.002824455266818404,-0.02374481037259102,0.009561226703226567,-0.024249223992228509,-0.007077790331095457,-0.05984972417354584,0.056975699961185458,0.04049350321292877,0.08376091718673706,-0.0044174171052873138,0.05237392336130142,0.09199436008930206,0.03813355416059494,0.0034434646368026735,0.022195251658558847,0.02880598045885563,0.03404651954770088,-0.052530787885189059,-0.07148431986570358,0.021109173074364663,0.020619917660951616,0.031606774777173999,-0.025836579501628877,0.04654642194509506,-0.036218319088220599,-0.03637441247701645,0.030557047575712205,-0.017353041097521783,0.10898974537849426,0.09406072646379471,-0.0842132568359375,0.028216702863574029,0.04122157767415047,0.07770515233278275,0.12971141934394837,0.04060700163245201,0.12381092458963394,-0.029672738164663316,0.0644202008843422,-0.04948881268501282,-0.00698782317340374,0.11785094439983368,-0.04311494156718254,-0.05613084137439728,-0.0955883115530014,0.01610625348985195,-0.02952679619193077,0.032118093222379687,-0.03336812183260918,-0.018485676497220994,-0.019191114231944085,0.02446036785840988,-0.03596406430006027,0.014884695410728455,-0.015165329910814762,0.03987677022814751,0.0936368852853775,0.033863767981529239,0.01242882665246725,-0.014311036095023156,-0.01698259636759758,0.06637726724147797,0.13967616856098176,0.04057832434773445,0.04953676462173462,0.07201523333787918,0.0552557073533535,0.031709473580121997,-0.05692899599671364,0.053641267120838168,-0.01876254938542843,-0.03948469087481499,0.02254584990441799,-0.04459686577320099,0.04307194799184799,-0.0006063732434995472,0.03880216181278229,-0.06356851011514664,0.022691650316119195,0.038112204521894458,0.00472067017108202,-0.05524582043290138,0.05924593657255173,0.019352778792381288,-0.014626524411141873,0.07691474258899689,-0.005151105113327503,0.05537191778421402,0.05883798375725746,-0.020988602191209794,0.060627881437540057,0.09576822817325592,-0.03218858689069748,0.07277755439281464,-0.025914574041962625,-0.021093253046274186,-0.04779123514890671,-0.007618552539497614,-0.007408477365970612,0.010458866134285927,0.007498725783079863,0.013410667888820172,-0.031350016593933108,0.05238824710249901,-0.08590593934059143,-0.12093114852905274,-0.007691785227507353,-0.008176489733159542,-0.01418245118111372,0.18154707551002503,-0.04896317794919014,0.09470665454864502,-0.060861166566610339,0.07229529321193695,0.0658319741487503,0.05381821095943451,0.07014261186122894,0.008547739125788212,-0.06383588910102844,-0.004776151850819588,0.12375406175851822,-0.06703721731901169,0.05912240967154503,-0.04858142510056496,-0.07201842963695526,0.001953978557139635,-0.022485917434096338,0.08296026289463043,-0.02603418380022049,0.029005512595176698,0.0677773728966713,0.0038764886558055879,-0.0028252373449504377,-0.010583585128188134,0.18665966391563416,0.06009715050458908,0.08936070650815964,0.053513303399086,-0.03306174278259277,0.04163309931755066,0.06507067382335663,-0.0011729843681678177,0.06830538064241409,0.05068265274167061,-0.09688810259103775,-0.08635096997022629,-0.12084246426820755,-0.0290159173309803,-0.04594499617815018,-0.010476525872945786,-0.09415121376514435,-0.07319599390029907,-0.0674297884106636,-0.03660346567630768,-0.05882979556918144,-0.011138207279145718,0.06435734033584595,-0.06533398479223252,0.06792338192462921,0.13374866545200349,0.10702783614397049,-0.01169437263160944,-0.025561166927218438,0.004778353031724691,0.027623161673545839,-0.018240272998809816,0.07819069176912308,-0.00025868535158224404,-0.021352162584662439,0.0316765122115612,0.005477955099195242,-0.05811307579278946,-0.16444066166877747,-0.04513177648186684,0.007549020927399397,-0.117303267121315,-0.08293993771076203,0.017772993072867395,-0.03435515612363815,0.023992544040083886,0.052536480128765109,0.038104210048913959,0.015507618896663189,0.033004697412252429,0.11944831907749176,0.006766112521290779,-0.000006391246188286459,0.03053569234907627,0.14270973205566407,0.021221982315182687,0.08126137405633927,0.005228172056376934,0.09740074723958969,0.08851207047700882,-0.1441081166267395,0.05295831710100174,0.012648203410208226,-0.039372727274894717,0.04241989180445671,-0.02272598072886467,-0.033189985901117328,-0.011994834057986737,0.03869549557566643,-0.07973328232765198,-0.03440272435545921,0.011866447515785694,-0.0694744810461998,-0.013728024438023568,0.08996226638555527,0.11308535933494568,0.15926800668239594,0.04714597761631012,0.016652649268507959,0.025744961574673654,0.0171128511428833,0.017192013561725618,0.09664326906204224,-0.09713513404130936,0.15457291901111604,-0.01540088839828968,-0.15013347566127778,-0.08925458788871765,0.11093421280384064,-0.10965731739997864,0.06847609579563141,-0.015711525455117227,-0.06893199682235718,-0.08883511275053024,0.009255429729819298,-0.06578950583934784,-0.022421762347221376,-0.08851887285709381,0.16113364696502686,-0.02025475725531578,0.0005802300875075161,0.056202955543994907,0.019220486283302308,0.04682702198624611,0.05945949628949165,0.03835178539156914,0.1514548510313034,0.0685790553689003,0.006288847886025906,0.05590999871492386,0.009673678316175938,-0.08605896681547165,-0.023074790835380555,-0.1254572719335556,0.0341070331633091,-0.16994109749794007,-0.042559850960969928,0.08556567877531052,0.0427296906709671,0.0682605430483818,-0.02855774387717247,0.03924153000116348,-0.008597801439464093,0.15716321766376496,0.05260377377271652,0.023849481716752054,0.013806281611323357,-0.015723243355751039,-0.04378730431199074,0.05396299809217453,0.07564005255699158,0.0939084142446518,0.0037693423219025137,0.057731810957193378,0.009749844670295716,0.025652160868048669,-0.01113766897469759,0.00743116857483983,0.05039671063423157,-0.16201567649841309,0.009357869625091553,0.09470131993293762,0.035731010138988498,0.011306125670671463,0.021179525181651117,-0.024037832394242288,-0.026808857917785646,0.01460272166877985,0.054862119257450107,0.03455561771988869,0.10727076232433319,0.10586653649806977,0.0027630070690065624,0.004380795639008284,0.06347504258155823,-0.0028746221214532854,0.048004526644945148,0.013007381930947304,-0.0871540978550911,-0.12563325464725495,-0.08286390453577042,-0.10847584158182144,-0.1225014179944992,0.02211657166481018,0.003078906796872616,0.002998753683641553,0.09040775895118714,0.07115089148283005,0.011200900189578534,0.07040861994028092,-0.0176771841943264,0.04051680490374565,-0.014612355269491673,-0.030342750251293184,0.11498445272445679,0.12086213380098343,0.0011609115172177554,0.01783822476863861,-0.006230613682419062,0.06418701261281967,-0.007333451882004738,-0.058455292135477069,-0.10559172183275223,-0.03235463425517082,-0.061996664851903918,-0.07916205376386643,-0.0704815685749054,-0.06631709635257721,-0.1386711597442627,-0.01500724721699953,-0.0247352235019207,-0.04678725823760033,-0.007895899936556816,0.04855164512991905,-0.05608842521905899,-0.013829563744366169,0.001598308444954455,-0.08376690000295639,-0.13436608016490937,-0.037032097578048709,0.16379280388355256,-0.07265553623437882,0.09244684129953385,-0.0944904312491417,0.11082562804222107,-0.05370645225048065,-0.04112999886274338,-0.07846283912658692,-0.07690606266260147,-0.06998641788959503,0.02364291064441204,-0.010609169490635395,-0.04793309047818184,0.041628386825323108,-0.029972195625305177,0.004538669716566801,-0.0383128821849823,-0.02652089297771454,0.017839465290308,0.004048916045576334,-0.1682923436164856,-0.08365924656391144,0.1522636115550995,0.050390440970659259,-0.030215872451663019,0.13079805672168733,0.04042762145400047,0.012565621174871922,-0.020912514999508859,-0.02028721198439598,-0.09090866893529892,-0.038580697029829028,-0.09497761726379395,0.025419680401682855,-0.168752059340477,-0.006530625745654106,-0.004018015693873167,0.03635584935545921,0.04452980309724808,0.04284742847084999,0.04439811781048775,0.002876667072996497,-0.06502249091863632,-0.06784101575613022,0.06019910052418709,0.042651887983083728,-0.12058975547552109,-0.03903757408261299,0.03340223804116249,0.0838959738612175,-0.009164470247924328,0.09996406733989716,0.022251706570386888,-0.04352625086903572,-0.05063467472791672,-0.03154293820261955,-0.03637372702360153,-0.08174451440572739,-0.029974758625030519,-0.03421364352107048,0.0254055168479681,-0.03957207873463631,-0.029687728732824327,-0.012604713439941407,0.03183099627494812,-0.03451845794916153,-0.0016931463032960892,0.0727933868765831,-0.042397961020469668,-0.030211003497242929,-0.049534834921360019,0.0798397809267044,-0.01383079681545496,-0.02302076853811741,-0.03737204894423485,0.0487869493663311,-0.0014897632645443082,0.03127514570951462,0.0329006165266037,0.05689435452222824,-0.004688193090260029,-0.04995382949709892,-0.07558049261569977,-0.11012706905603409,-0.06217670813202858,0.08263647556304932,-0.03218458965420723,-0.05621002987027168,0.04956831783056259,0.028836887329816819,0.022665956988930703,-0.010578341782093048,0.04881461709737778,0.05972757562994957,0.012937398627400399,0.013634919188916684,0.024458520114421846,0.036719437688589099,-0.09165044873952866,0.025807248428463937,-0.061513110995292667,-0.009379485622048378,0.029951250180602075,0.05013159662485123,-0.03966543450951576,0.12369721382856369,0.05246490240097046,0.02337498962879181,-0.01058010570704937,0.06569486856460571,0.060997236520051959,-0.0625399723649025,-0.025621043518185617,-0.004969205241650343,0.024067826569080354,0.05450896918773651,-0.1400444060564041,0.03260286524891853,-0.06201160326600075,0.04373931884765625,0.004169933497905731,-0.09457622468471527,-0.030913759022951127,-0.032332051545381549,-0.088721863925457,0.07173904031515122,0.008482318371534348,0.048532672226428989,-0.058806274086236957,0.03182382881641388,0.07783427089452744,0.0343778133392334,-0.03258376941084862,0.08103977143764496,-0.06574464589357376,-0.00813642144203186,0.03789191693067551,-0.02924966998398304,0.0617731511592865,-0.03348442167043686,-0.019564101472496988,0.08974558860063553,-0.08750241249799729,-0.1267644613981247,-0.019959935918450357,-0.03189747408032417,-0.13126054406166078,-0.15759599208831788,-0.004356969613581896,-0.0274807158857584,0.04119085147976875,0.010093697346746922,-0.0721263438463211,0.01922023296356201,0.046610474586486819,0.049386896193027499,0.03919142112135887,0.025713015347719194,0.022837843745946885,-0.023634813725948335,0.07692575454711914,0.0002005012211157009,0.007587484549731016,0.062366537749767306,-0.11325334757566452,0.06890848278999329,-0.04688316583633423,-0.01569615676999092,-0.09401323646306992,-0.09035615622997284,-0.007882528938353062,-0.11739606410264969,-0.1271773725748062,-0.02052159048616886,0.0026134916115552189,-0.036538977175951007,0.044023044407367709,0.1747271567583084,0.0026193461380898954,0.16494211554527284,0.0030814576894044878,-0.04935870319604874,0.01894148252904415,-0.040425367653369907,0.0004599838866852224,0.03348781540989876,-0.012866460718214512,-0.06366568058729172,-0.05008354410529137,-0.06355098634958267,-0.06884514540433884,0.009287186898291111,0.06923875957727432,0.0084609966725111,0.00016275131201837212,0.08593939989805222,0.14996007084846497,0.09475509077310562,0.016494642943143846,0.06430622935295105,0.00974643137305975,0.007902233861386776,0.022991949692368509,0.07521931082010269,0.05894524231553078,0.08668692409992218,-0.026006469503045083,-0.03985621780157089,-0.04453454911708832,0.017334267497062684,-0.07730553299188614,0.011539260856807232,0.022173317149281503,-0.012585984542965889,-0.10225369036197663,-0.013290940783917904,0.06866344064474106,-0.010709003545343876,0.0445406436920166,0.08745564520359039,0.023459892719984056,0.05643042176961899,0.02049023099243641,0.1092250794172287,0.0009876021649688483,-0.006003407761454582,-0.02088397741317749,0.056965600699186328,0.020676473155617715,0.06358672678470612,0.08661948144435883,0.014969134703278542,-0.01733540929853916,-0.05257406458258629,-0.06379256397485733,-0.02915692701935768,-0.04518536105751991,-0.09830108284950257,0.012212077155709267,0.012119530700147152,-0.12199454009532929,0.016439495608210565,-0.002728782594203949,0.07616212964057923,0.06302227079868317,0.1285947561264038,-0.006730193737894297,0.029216310009360315,0.045673225075006488,0.028467806056141855,-0.044310200959444049,0.04876553267240524,-0.17895951867103578,-0.04247036948800087,-0.07676269859075546,-0.006419141311198473,-0.020135825499892236,-0.05558284744620323,-0.07206261157989502,-0.03788105025887489,0.038640353828668597,-0.1013488918542862,0.12530462443828584,0.004208667669445276,-0.03479834645986557,0.10513557493686676,0.015314978547394276,0.03541231527924538,0.08403530716896057,0.14563989639282227,-0.024617131799459459,-0.05754606053233147,-0.026971541345119478,-0.026990503072738649,-0.06700301915407181,0.03332116827368736,-0.053364347666502,-0.0768246278166771,0.1010223925113678,0.00843123346567154,-0.006962105631828308,-0.024639399722218515,-0.06785798817873001,-0.018923498690128328,0.031111763790249826,-0.028322981670498849,0.07488526403903961,0.0021529407240450384,0.08235695958137512,0.1556042730808258,0.07279708236455918,-0.030446214601397516,0.09340335428714752,-0.03676389902830124,0.10388516634702683,0.02186243236064911,0.0012176611926406623,-0.06457812339067459,0.04142415523529053,0.021668504923582078,0.017774201929569246,-0.0009499644511379302,-0.08830492198467255,0.03176405280828476,-0.0760408565402031,-0.08423733711242676,0.0464446134865284,0.001049531507305801,-0.07636202126741409,0.03198143094778061,0.14855735003948213,0.13266435265541078,-0.0376301035284996,0.10863091051578522,0.027347123250365258,0.09253101050853729,0.13688234984874726,-0.026464367285370828,0.017085503786802293,0.04950156435370445,0.04808630794286728,0.03847324475646019,0.04095250740647316,0.020801525563001634,-0.053701188415288928,0.009422671049833298,0.057822246104478839,-0.015004890970885754,-0.04901845380663872,-0.01879716105759144,-0.11446251720190048,-0.04120570421218872,0.09739717096090317,0.09808316826820374,0.016326604411005975,0.001606351463124156,0.021594209596514703,-0.0007197853992693126,0.17846302688121797,-0.05015340447425842,-0.01133175939321518,0.13687540590763093,-0.030214790254831315,0.00825353804975748,-0.030071690678596498,0.0661127045750618,0.00035631615901365876,0.03661082312464714,0.018030153587460519,0.035783156752586368,0.03832653537392616,0.010619447566568852,0.054868005216121677,0.07627112418413162,0.07076667249202728,0.15921957790851594,0.042382724583148959,-0.026580970734357835,0.04127192124724388,-0.04883010685443878,0.02535110153257847,0.032076187431812289,0.08445814996957779,0.025318188592791559,0.1403549760580063,0.057631898671388629,-0.022318242117762567,0.03926030546426773,-0.006258490029722452,-0.041278108954429629,-0.01080423966050148,0.055983904749155048,